{"learner":{"attributes":{"best_iteration":"109","best_ntree_limit":"110","scikit_learn":"{\"n_estimators\": 110, \"objective\": \"reg:squarederror\", \"max_depth\": 6, \"max_leaves\": null, \"max_bin\": null, \"grow_policy\": null, \"learning_rate\": 0.1, \"verbosity\": null, \"booster\": null, \"tree_method\": null, \"gamma\": null, \"min_child_weight\": null, \"max_delta_step\": null, \"subsample\": 0.75, \"sampling_method\": null, \"colsample_bytree\": 0.9, \"colsample_bylevel\": null, \"colsample_bynode\": null, \"reg_alpha\": null, \"reg_lambda\": null, \"scale_pos_weight\": null, \"base_score\": null, \"missing\": NaN, \"num_parallel_tree\": null, \"random_state\": 42, \"n_jobs\": null, \"monotone_constraints\": null, \"interaction_constraints\": null, \"importance_type\": null, \"gpu_id\": null, \"validate_parameters\": null, \"predictor\": null, \"enable_categorical\": false, \"max_cat_to_onehot\": null, \"eval_metric\": null, \"early_stopping_rounds\": null, \"callbacks\": null, \"kwargs\": {\"eta\": 0.05}, \"_estimator_type\": \"regressor\"}"},"feature_names":[],"feature_types":[],"gradient_booster":{"model":{"gbtree_model_param":{"num_parallel_tree":"1","num_trees":"110","size_leaf_vector":"0"},"tree_info":[0,0,0,0,0,0,0,0,0,0,0,0,0,0,0,0,0,0,0,0,0,0,0,0,0,0,0,0,0,0,0,0,0,0,0,0,0,0,0,0,0,0,0,0,0,0,0,0,0,0,0,0,0,0,0,0,0,0,0,0,0,0,0,0,0,0,0,0,0,0,0,0,0,0,0,0,0,0,0,0,0,0,0,0,0,0,0,0,0,0,0,0,0,0,0,0,0,0,0,0,0,0,0,0,0,0,0,0,0,0],"trees":[{"base_weights":[1.5402053E1,1.6487629E1,1.1772785E1,1.673047E1,5.467763E0,1.2738112E1,2.0880373E0,1.4884207E1,1.8550941E1,7.6131124E0,1.4998258E0,1.5963918E1,1.0270498E1,3.479546E0,1.1138263E0,1.6696243E1,1.0871851E1,1.9493248E1,1.4431661E1,1.8510158E0,3.98723E-1,1.9886093E1,8.085167E0,4.1399155E0,1.1630647E1,1.8118526E1,1.1135216E1,6.963832E0,1.2873205E1,8.625239E0,1.8214273E1,3.2837925E0,1.2065593E1,6.865879E-1,4.6010385E0,1.371586E1,5.7457376E0,9.779789E0,1.9206436E1,9.1009665E-1,1.2763561E1,3.4111097E0,9.948035E0,7.5503473E0,1.5574083E1,1.3146845E1,4.1732965E0,1.9981081E1,1.1565032E0,4.6811614E0,7.9182583E-1,1.4550744E1,1.7886093E-1,3.6993313E0,1.0035292E1],"categories":[],"categories_nodes":[],"categories_segments":[],"categories_sizes":[],"default_left":[1,1,1,1,1,1,1,1,1,0,1,1,1,0,0,1,1,0,1,0,0,0,1,1,1,1,1,1,1,1,1,1,0,0,0,1,1,0,0,0,0,0,0,0,0,0,0,0,0,0,0,0,0,0,0],"id":0,"left_children":[1,3,5,7,9,11,13,15,17,-1,19,21,23,-1,-1,25,27,-1,29,-1,-1,-1,31,33,35,37,39,41,43,45,47,49,-1,-1,-1,51,53,-1,-1,-1,-1,-1,-1,-1,-1,-1,-1,-1,-1,-1,-1,-1,-1,-1,-1],"loss_changes":[6.5296094E2,3.4472266E2,4.6889648E2,2.5829297E2,3.11447E1,2.18125E2,4.258129E0,4.2920703E2,1.3681641E1,0E0,4.2204618E-1,4.2635254E2,2.0200513E2,0E0,0E0,2.4116992E2,1.3717188E2,0E0,2.382395E2,0E0,0E0,0E0,1.1327124E2,7.9878387E0,2.1570312E2,2.0225195E2,2.2148438E2,9.329071E1,1.411853E2,1.2630371E2,2.7826978E2,1.3704327E1,0E0,0E0,0E0,1.8952832E2,3.31015E1,0E0,0E0,0E0,0E0,0E0,0E0,0E0,0E0,0E0,0E0,0E0,0E0,0E0,0E0,0E0,0E0,0E0,0E0],"parents":[2147483647,0,0,1,1,2,2,3,3,4,4,5,5,6,6,7,7,8,8,10,10,11,11,12,12,15,15,16,16,18,18,22,22,23,23,24,24,25,25,26,26,27,27,28,28,29,29,30,30,31,31,35,35,36,36],"right_children":[2,4,6,8,10,12,14,16,18,-1,20,22,24,-1,-1,26,28,-1,30,-1,-1,-1,32,34,36,38,40,42,44,46,48,50,-1,-1,-1,52,54,-1,-1,-1,-1,-1,-1,-1,-1,-1,-1,-1,-1,-1,-1,-1,-1,-1,-1],"split_conditions":[1.25E1,6.25E1,9.280705E-1,4.9510616E-1,1.5E0,4.876703E-1,3.1E1,1.05E1,4.5E0,7.6131123E-1,3E0,3.5E0,2.1E1,3.479546E-1,1.11382626E-1,7.1879965E-1,1.5E0,1.9493248E0,7.5E0,1.8510158E-1,3.98723E-2,1.9886093E0,5.5E1,1.15E1,4.7E1,3.5E0,1.45E1,8E0,1.25E1,5.4519725E-1,5.05E1,3.95E1,1.2065593E0,6.865879E-2,4.6010384E-1,9.294493E-1,6.35E1,9.779789E-1,1.9206437E0,9.100967E-2,1.2763561E0,3.4111097E-1,9.9480355E-1,7.5503474E-1,1.5574083E0,1.3146845E0,4.1732964E-1,1.9981081E0,1.1565032E-1,4.6811613E-1,7.918259E-2,1.4550744E0,1.7886093E-2,3.6993313E-1,1.0035292E0],"split_indices":[3,0,11,14,9,17,0,4,1,0,1,1,0,0,0,17,9,0,5,0,0,0,0,2,0,2,0,6,4,14,0,0,0,0,0,17,0,0,0,0,0,0,0,0,0,0,0,0,0,0,0,0,0,0,0],"split_type":[0,0,0,0,0,0,0,0,0,0,0,0,0,0,0,0,0,0,0,0,0,0,0,0,0,0,0,0,0,0,0,0,0,0,0,0,0,0,0,0,0,0,0,0,0,0,0,0,0,0,0,0,0,0,0],"sum_hessian":[2.14E2,1.62E2,5.2E1,1.58E2,4E0,4.7E1,5E0,8.3E1,7.5E1,2E0,2E0,1.8E1,2.9E1,1E0,4E0,5.5E1,2.8E1,5.8E1,1.7E1,1E0,1E0,1.1E1,7E0,6E0,2.3E1,4.2E1,1.3E1,1.1E1,1.7E1,8E0,9E0,4E0,3E0,1E0,5E0,1.6E1,7E0,6E0,3.6E1,2E0,1.1E1,6E0,5E0,7E0,1E1,3E0,5E0,8E0,1E0,2E0,2E0,1.5E1,1E0,6E0,1E0],"tree_param":{"num_deleted":"0","num_feature":"22","num_nodes":"55","size_leaf_vector":"0"}},{"base_weights":[1.386281E1,1.4093384E1,5.9621086E0,1.1016035E1,1.4613461E1,2.0950434E0,1.1708869E1,1.3777548E1,6.4155135E0,1.8792297E1,1.4119674E1,3.017174E0,1.6718833E-1,1.5416776E1,2.9566376E0,9.164462E0,2.8646257E0,1.293248E0,1.4189998E1,-1.2800437E-1,3.7878686E-1,3.5324507E0,1.5908063E1,3.3369067E0,9.079154E-1,1.0781576E1,4.851955E0,5.365612E-1,3.1205547E0,1.4246657E1,2.4772983E0,5.9307504E0,1.6842987E1,1.2278872E0,3.6320443E0,1.6708563E1,1.33911085E1],"categories":[],"categories_nodes":[],"categories_segments":[],"categories_sizes":[],"default_left":[1,1,1,1,1,1,0,1,1,0,1,0,1,1,1,1,1,0,1,0,0,0,1,0,0,0,0,0,1,1,0,0,0,0,0,0,0],"id":1,"left_children":[1,3,5,7,9,11,-1,13,15,-1,17,-1,19,21,23,25,27,-1,29,-1,-1,-1,31,-1,-1,-1,-1,-1,33,35,-1,-1,-1,-1,-1,-1,-1],"loss_changes":[3.185703E2,1.8151562E2,1.5325415E2,3.5626367E2,1.0608203E2,1.0161968E1,0E0,3.269148E2,1.20165405E2,0E0,1.3047656E2,0E0,2.358734E-1,4.890088E1,8.663559E-2,3.4786987E0,3.092186E0,0E0,7.354297E1,0E0,0E0,0E0,5.868506E1,0E0,0E0,0E0,0E0,0E0,2.3168106E0,1.1957422E2,0E0,0E0,0E0,0E0,0E0,0E0,0E0],"parents":[2147483647,0,0,1,1,2,2,3,3,4,4,5,5,7,7,8,8,10,10,12,12,13,13,14,14,15,15,16,16,18,18,22,22,28,28,29,29],"right_children":[2,4,6,8,10,12,-1,14,16,-1,18,-1,20,22,24,26,28,-1,30,-1,-1,-1,32,-1,-1,-1,-1,-1,34,36,-1,-1,-1,-1,-1,-1,-1],"split_conditions":[6.25E1,1.5812036E-1,5.842297E-1,1.15E1,7.581937E-2,9E0,1.1708869E0,1.3546269E-1,3.2E1,1.8792298E0,8.610378E-2,3.017174E-1,1.45E1,5E-1,4.35E1,8E0,2.5E0,1.2932481E-1,9.809371E-1,-1.2800437E-2,3.787869E-2,3.5324508E-1,1.85E1,3.3369067E-1,9.0791546E-2,1.0781577E0,4.851955E-1,5.365612E-2,4E1,5E-1,2.4772982E-1,5.9307504E-1,1.6842988E0,1.2278872E-1,3.6320445E-1,1.6708564E0,1.3391109E0],"split_indices":[0,20,20,4,11,2,0,20,0,0,11,0,2,3,0,3,5,0,8,0,0,0,0,0,0,0,0,0,0,12,0,0,0,0,0,0,0],"split_type":[0,0,0,0,0,0,0,0,0,0,0,0,0,0,0,0,0,0,0,0,0,0,0,0,0,0,0,0,0,0,0,0,0,0,0,0,0],"sum_hessian":[2.2E2,2.13E2,7E0,3.4E1,1.79E2,5E0,2E0,2E1,1.4E1,1.5E1,1.64E2,3E0,2E0,1.7E1,3E0,7E0,7E0,1E0,1.63E2,1E0,1E0,1E0,1.6E1,2E0,1E0,4E0,3E0,1E0,6E0,1.62E2,1E0,2E0,1.4E1,2E0,4E0,3.7E1,1.25E2],"tree_param":{"num_deleted":"0","num_feature":"22","num_nodes":"37","size_leaf_vector":"0"}},{"base_weights":[1.1619309E1,1.6345623E1,1.1018104E1,1.7025011E1,3.5984752E-1,8.860879E0,1.2526228E1,5.452997E0,9.707975E0,1.4515584E1,9.825986E0,-1.2706162E0,6.7142596E0,1.0399734E1,4.51745E0,1.4664201E1,2.3534331E0,3.0464053E0,1.0770894E1,3.4181347E0,8.679733E0,1.0745176E1,2.790886E0,7.563285E0,1.2263457E0,1.57459955E1,1.1159445E1,4.8554504E-1,4.4858127E0,1.1706403E1,3.752785E0,4.488754E0,1.225327E0,9.157993E0,2.1876962E0,1.0915803E1,5.0973314E-1,-2.8412658E-1,2.8315268E0,8.020407E0,1.6457798E1,3.5640726E0,1.2947273E1,1.2002692E0,-8.293138E-1,1.2417485E1,2.024513E0,1.4955012E0,8.648244E0],"categories":[],"categories_nodes":[],"categories_segments":[],"categories_sizes":[],"default_left":[1,1,1,0,0,1,1,1,1,1,1,0,1,1,1,1,0,1,1,1,1,1,0,0,1,1,1,1,0,1,1,0,0,0,0,0,0,0,0,0,0,0,0,0,0,0,0,0,0],"id":2,"left_children":[1,3,5,-1,-1,7,9,11,13,15,17,-1,19,21,23,25,-1,27,29,31,33,35,-1,-1,37,39,41,43,-1,45,47,-1,-1,-1,-1,-1,-1,-1,-1,-1,-1,-1,-1,-1,-1,-1,-1,-1,-1],"loss_changes":[4.7628516E2,2.5452637E2,5.657051E2,0E0,0E0,2.0398828E2,5.0198047E2,1.7813605E2,2.0436133E2,8.65918E1,3.1311523E2,0E0,8.046509E1,1.3034473E2,9.0966385E1,7.45166E1,0E0,2.7310905E1,2.6464746E2,1.3281113E1,1.1013916E1,9.572949E1,0E0,0E0,1.5352001E1,1.3195898E2,2.1186035E2,4.754446E0,0E0,2.5713037E2,6.4419624E1,0E0,0E0,0E0,0E0,0E0,0E0,0E0,0E0,0E0,0E0,0E0,0E0,0E0,0E0,0E0,0E0,0E0,0E0],"parents":[2147483647,0,0,1,1,2,2,5,5,6,6,7,7,8,8,9,9,10,10,12,12,13,13,14,14,15,15,17,17,18,18,19,19,20,20,21,21,24,24,25,25,26,26,27,27,29,29,30,30],"right_children":[2,4,6,-1,-1,8,10,12,14,16,18,-1,20,22,24,26,-1,28,30,32,34,36,-1,-1,38,40,42,44,-1,46,48,-1,-1,-1,-1,-1,-1,-1,-1,-1,-1,-1,-1,-1,-1,-1,-1,-1,-1],"split_conditions":[1.09155625E-1,1.5E1,3.5739332E-1,1.7025012E0,3.598475E-2,2.55E1,8.5E0,4E0,3.2476458E-1,9.740783E-1,2.720629E-1,-1.2706162E-1,2.5E0,6.25E1,1.2E1,1.25E1,2.3534332E-1,1E0,9.228734E-1,4.7889656E-1,1.5E1,9.910241E-1,2.790886E-1,7.563285E-1,5E-1,5E-1,2.960766E-1,5.15E1,4.4858128E-1,9.317206E-1,1.35E1,4.488754E-1,1.225327E-1,9.157993E-1,2.1876962E-1,1.0915803E0,5.0973315E-2,-2.8412659E-2,2.8315267E-1,8.020407E-1,1.6457798E0,3.5640725E-1,1.2947273E0,1.2002692E-1,-8.2931384E-2,1.2417486E0,2.024513E-1,1.4955013E-1,8.648244E-1],"split_indices":[11,2,14,0,0,0,3,5,14,8,11,0,1,0,3,2,0,9,11,8,2,8,0,0,7,3,11,0,0,8,5,0,0,0,0,0,0,0,0,0,0,0,0,0,0,0,0,0,0],"split_type":[0,0,0,0,0,0,0,0,0,0,0,0,0,0,0,0,0,0,0,0,0,0,0,0,0,0,0,0,0,0,0,0,0,0,0,0,0,0,0,0,0,0,0,0,0,0,0,0,0],"sum_hessian":[2.3E2,2.3E1,2.07E2,2.2E1,1E0,8.8E1,1.19E2,1.9E1,6.9E1,6.6E1,5.3E1,3E0,1.6E1,6E1,9E0,6.5E1,1E0,7E0,4.6E1,7E0,9E0,5.7E1,3E0,4E0,5E0,4.7E1,1.8E1,3E0,4E0,4E1,6E0,4E0,3E0,8E0,1E0,5.6E1,1E0,3E0,2E0,5E0,4.2E1,4E0,1.4E1,2E0,1E0,3.7E1,3E0,5E0,1E0],"tree_param":{"num_deleted":"0","num_feature":"22","num_nodes":"49","size_leaf_vector":"0"}},{"base_weights":[1.07560835E1,9.368839E0,1.2133079E1,1.0479777E1,6.8249993E0,1.3346298E1,7.634019E0,1.3415276E1,9.063538E0,1.1746025E1,4.7496195E0,1.4223863E1,7.261241E0,1.4438945E1,5.5510864E0,-3.6624312E-1,1.4088979E1,3.3029304E0,9.5947895E0,2.2122676E0,1.2559524E1,2.4233665E0,7.912954E0,9.355957E0,1.4999144E1,2.0090878E0,1.2178546E1,6.6579347E0,8.9895415E-1,8.857548E-1,1.4704852E1,5.822922E0,-1.1580354E0,1.0713519E1,6.4193482E0,-1.0754591E0,2.961574E0,-1.3215952E0,8.968568E0,3.5269592E0,1.3015676E1,5.2482266E0,1.52583E1,-1.8354177E0,2.9557416E0,1.3719951E1,2.2357616E0,1.0453299E1,4.5217056E0,3.1473088E0,1.5147496E1,1.128652E1,1.0303444E0,-1.4441626E-1,7.440267E0,3.4928517E0,6.2734735E-1,2.0962703E-1,9.918491E0,7.877446E-1,3.917253E0,8.071007E0,-1.9866705E-1,1.6528606E1,1.2208834E1,6.2873883E0,7.92272E-1],"categories":[],"categories_nodes":[],"categories_segments":[],"categories_sizes":[],"default_left":[1,1,1,1,1,1,1,1,1,1,1,1,1,0,1,0,1,1,1,0,0,1,1,1,1,1,1,1,0,0,1,0,0,1,1,0,1,0,1,1,0,1,1,0,0,0,0,0,1,0,0,0,0,0,0,0,0,0,0,0,0,0,0,0,0,0,0],"id":3,"left_children":[1,3,5,7,9,11,13,15,17,19,21,23,25,-1,27,-1,29,31,33,-1,-1,35,37,39,41,43,45,47,-1,-1,49,-1,-1,51,53,-1,55,-1,57,59,-1,61,63,-1,-1,-1,-1,-1,65,-1,-1,-1,-1,-1,-1,-1,-1,-1,-1,-1,-1,-1,-1,-1,-1,-1,-1],"loss_changes":[2.874746E2,2.3651465E2,4.5486523E2,1.8605566E2,3.1187866E2,3.185791E2,2.6002893E2,2.0942212E2,1.3050684E2,4.9771973E1,1.7950934E2,1.16299805E2,2.8544952E2,0E0,9.699896E1,0E0,1.5773682E2,7.4192726E1,1.0174414E2,0E0,0E0,3.5197647E1,1.1908215E2,2.100841E2,6.3960938E1,3.090093E1,6.1280518E1,8.245752E1,0E0,0E0,5.4644043E1,0E0,0E0,1.770188E2,1.01590576E2,0E0,1.6410614E1,0E0,8.1124084E1,3.3287964E0,0E0,4.772959E1,1.1261719E1,0E0,0E0,0E0,0E0,0E0,7.4038666E1,0E0,0E0,0E0,0E0,0E0,0E0,0E0,0E0,0E0,0E0,0E0,0E0,0E0,0E0,0E0,0E0,0E0,0E0],"parents":[2147483647,0,0,1,1,2,2,3,3,4,4,5,5,6,6,7,7,8,8,9,9,10,10,11,11,12,12,14,14,16,16,17,17,18,18,21,21,22,22,23,23,24,24,25,25,26,26,27,27,30,30,33,33,34,34,36,36,38,38,39,39,41,41,42,42,48,48],"right_children":[2,4,6,8,10,12,14,16,18,20,22,24,26,-1,28,-1,30,32,34,-1,-1,36,38,40,42,44,46,48,-1,-1,50,-1,-1,52,54,-1,56,-1,58,60,-1,62,64,-1,-1,-1,-1,-1,66,-1,-1,-1,-1,-1,-1,-1,-1,-1,-1,-1,-1,-1,-1,-1,-1,-1,-1],"split_conditions":[5.004419E-1,6.235721E-1,4.5E0,1.460585E-1,1.686659E-1,8.8202566E-1,5.4669356E-1,1.4280866E-1,1.5855347E-1,5E-1,1E1,2.2953883E-1,2.5E0,1.4438945E0,1.25E1,-3.6624312E-2,1.4186641E-2,1E1,4.1301584E-1,2.2122677E-1,1.2559524E0,3E0,1.5E0,5E-1,5E-1,5E0,1.4E1,4.4402897E-1,8.989542E-2,8.857548E-2,5E-1,5.8229226E-1,-1.1580354E-1,4.5458668E-1,4.5E0,-1.0754591E-1,6.168921E-1,-1.3215952E-1,3E0,8.5E0,1.3015676E0,4.45E1,1.05E1,-1.8354177E-1,2.9557416E-1,1.3719951E0,2.2357617E-1,1.0453299E0,7.920984E-1,3.1473088E-1,1.5147496E0,1.128652E0,1.0303444E-1,-1.4441626E-2,7.440267E-1,3.492852E-1,6.273474E-2,2.0962704E-2,9.918491E-1,7.877446E-2,3.917253E-1,8.071007E-1,-1.9866705E-2,1.6528606E0,1.2208834E0,6.287388E-1,7.92272E-2],"split_indices":[14,17,1,14,11,8,14,8,14,5,6,20,1,0,6,0,14,4,17,0,0,3,4,16,3,3,5,8,0,0,6,0,0,14,2,0,20,0,2,2,0,0,3,0,0,0,0,0,14,0,0,0,0,0,0,0,0,0,0,0,0,0,0,0,0,0,0],"split_type":[0,0,0,0,0,0,0,0,0,0,0,0,0,0,0,0,0,0,0,0,0,0,0,0,0,0,0,0,0,0,0,0,0,0,0,0,0,0,0,0,0,0,0,0,0,0,0,0,0,0,0,0,0,0,0,0,0,0,0,0,0,0,0,0,0,0,0],"sum_hessian":[2.09E2,1.08E2,1.01E2,7.3E1,3.5E1,7.8E1,2.3E1,2.1E1,5.2E1,9E0,2.6E1,6.7E1,1.1E1,4E0,1.9E1,1E0,2E1,5E0,4.7E1,1E0,8E0,1.6E1,1E1,1.1E1,5.6E1,6E0,5E0,1.5E1,4E0,1E0,1.9E1,3E0,2E0,3.3E1,1.4E1,2E0,1.4E1,1E0,9E0,5E0,6E0,2E0,5.4E1,1E0,5E0,4E0,1E0,4E0,1.1E1,1E0,1.8E1,3.1E1,2E0,2E0,1.2E1,1.1E1,3E0,1E0,8E0,1E0,4E0,1E0,1E0,3.5E1,1.9E1,7E0,4E0],"tree_param":{"num_deleted":"0","num_feature":"22","num_nodes":"67","size_leaf_vector":"0"}},{"base_weights":[1.0149387E1,8.703485E0,1.1183626E1,9.940296E0,5.388961E0,1.0619404E1,1.59630375E1,1.1112269E1,3.5450685E0,3.6305013E0,1.0145696E1,7.493097E0,1.1211157E1,1.4012182E1,8.889118E0,-2.179275E-1,4.3194604E0,5.1959105E0,7.920317E-1,-8.3225733E-1,1.2114064E1,9.258395E0,-7.5369356E-3,1.0527542E1,1.5832409E1,3.2060328E0,1.5472803E1,2.090374E0,9.461177E0,-8.141559E-1,4.8726463E-1,9.9360794E-1,5.026723E0,-2.9502928E-1,6.72026E0,2.35334E0,-1.7479385E0,8.0066067E-1,1.0332715E1,-3.1366974E-1,6.0849714E-1,1.0991868E1,2.6593263E0,1.6925028E1,2.9994187E0,3.713732E0,8.4146714E-1,7.2528396E0,1.7074492E1,3.581303E0,-1.1912062E0,-3.7866342E-1,9.790806E0,1.1808081E0,3.0960387E-1,-1.1815426E0,1.1822554E0,2.2633824E0,7.4591904E0,3.9727297E0,5.5046254E-1,-7.5573367E-1,-2.3622766E0,-4.4909525E-1,1.6500863E0,1.1027589E1,3.0224153E-1,-5.5916548E-2,-3.8094863E-1,6.800963E-1,1.1250874E1,2.3025846E-1,3.8162956E0],"categories":[],"categories_nodes":[],"categories_segments":[],"categories_sizes":[],"default_left":[1,1,1,1,1,1,0,1,1,1,1,1,1,1,1,1,1,1,1,0,0,1,1,1,1,1,1,1,1,0,0,1,0,1,1,1,1,1,1,1,0,1,1,0,0,0,0,0,0,0,0,0,0,0,0,0,0,0,0,0,0,0,0,0,0,0,0,0,0,0,0,0,0],"id":4,"left_children":[1,3,5,7,9,11,-1,13,15,17,19,21,23,25,27,29,31,33,35,-1,-1,37,39,41,43,45,47,49,51,-1,-1,53,-1,55,57,59,61,63,65,67,-1,69,71,-1,-1,-1,-1,-1,-1,-1,-1,-1,-1,-1,-1,-1,-1,-1,-1,-1,-1,-1,-1,-1,-1,-1,-1,-1,-1,-1,-1,-1,-1],"loss_changes":[2.2716602E2,3.358789E2,1.6216992E2,4.7026855E2,1.973728E2,1.2504297E2,0E0,2.4291992E2,3.590973E1,9.36387E1,1.6134259E2,2.781277E2,1.27125E2,3.1341846E2,1.1634741E2,1.658076E0,1.8527908E1,1.19164246E2,3.980458E1,0E0,0E0,1.4619446E2,1.1338083E0,2.7765625E2,8.9450195E1,1.6769714E0,1.3947803E2,2.383648E1,1.0749951E2,0E0,0E0,1.855421E-2,0E0,6.635415E0,1.9343536E1,1.5330528E1,6.5294456E-1,3.9257703E0,1.0121582E2,4.8064053E-2,0E0,2.033418E2,1.5983406E1,0E0,0E0,0E0,0E0,0E0,0E0,0E0,0E0,0E0,0E0,0E0,0E0,0E0,0E0,0E0,0E0,0E0,0E0,0E0,0E0,0E0,0E0,0E0,0E0,0E0,0E0,0E0,0E0,0E0,0E0],"parents":[2147483647,0,0,1,1,2,2,3,3,4,4,5,5,7,7,8,8,9,9,10,10,11,11,12,12,13,13,14,14,15,15,16,16,17,17,18,18,21,21,22,22,23,23,24,24,25,25,26,26,27,27,28,28,31,31,33,33,34,34,35,35,36,36,37,37,38,38,39,39,41,41,42,42],"right_children":[2,4,6,8,10,12,-1,14,16,18,20,22,24,26,28,30,32,34,36,-1,-1,38,40,42,44,46,48,50,52,-1,-1,54,-1,56,58,60,62,64,66,68,-1,70,72,-1,-1,-1,-1,-1,-1,-1,-1,-1,-1,-1,-1,-1,-1,-1,-1,-1,-1,-1,-1,-1,-1,-1,-1,-1,-1,-1,-1,-1,-1],"split_conditions":[3.5739332E-1,7.1344244E-1,1.45E1,8.680749E-1,7.5490946E-1,1.8342033E-1,1.5963038E0,1.5007576E-1,1.5E0,4.4131434E-1,2E1,1.6010734E-1,9.1252506E-1,1.7229538E-2,1.5774342E-1,4.9E1,3.248937E-1,4.5E0,7.5E0,-8.3225735E-2,1.2114065E0,1.6022608E-1,1.25E1,8.5165685E-1,5.45E1,4.35E1,1.5793908E-1,5.05E1,1.9609688E-2,-8.1415586E-2,4.8726466E-2,4.7E1,5.026723E-1,5.3E1,3.5E0,1.2140839E-1,3E0,1.5E1,1.5E1,3.2E1,6.0849715E-2,6.4904004E-2,5.062882E-1,1.6925029E0,2.9994187E-1,3.713732E-1,8.4146716E-2,7.25284E-1,1.7074492E0,3.581303E-1,-1.1912062E-1,-3.7866343E-2,9.790806E-1,1.1808081E-1,3.0960387E-2,-1.18154265E-1,1.1822554E-1,2.2633825E-1,7.4591905E-1,3.9727297E-1,5.5046257E-2,-7.557337E-2,-2.3622766E-1,-4.4909526E-2,1.6500863E-1,1.1027589E0,3.0224154E-2,-5.5916547E-3,-3.8094863E-2,6.800964E-2,1.1250874E0,2.3025846E-2,3.8162956E-1],"split_indices":[14,17,6,11,11,11,0,14,1,11,0,11,17,14,14,0,20,4,4,0,0,17,2,17,0,0,20,0,20,0,0,0,0,0,6,14,1,0,2,0,0,20,11,0,0,0,0,0,0,0,0,0,0,0,0,0,0,0,0,0,0,0,0,0,0,0,0,0,0,0,0,0,0],"split_type":[0,0,0,0,0,0,0,0,0,0,0,0,0,0,0,0,0,0,0,0,0,0,0,0,0,0,0,0,0,0,0,0,0,0,0,0,0,0,0,0,0,0,0,0,0,0,0,0,0,0,0,0,0,0,0,0,0,0,0,0,0,0,0,0,0,0,0,0,0,0,0,0,0],"sum_hessian":[2.16E2,9.4E1,1.22E2,6.7E1,2.7E1,1.12E2,1E1,5.6E1,1.1E1,2.1E1,6E0,2E1,9.2E1,2.2E1,3.4E1,2E0,9E0,1.3E1,8E0,1E0,5E0,1.6E1,4E0,8.3E1,9E0,3E0,1.9E1,3E0,3.1E1,1E0,1E0,2E0,7E0,3E0,1E1,5E0,3E0,2E0,1.4E1,3E0,1E0,7.8E1,5E0,8E0,1E0,2E0,1E0,4E0,1.5E1,2E0,1E0,1E0,3E1,1E0,1E0,2E0,1E0,2E0,8E0,2E0,3E0,2E0,1E0,1E0,1E0,1.3E1,1E0,1E0,2E0,2E0,7.6E1,2E0,3E0],"tree_param":{"num_deleted":"0","num_feature":"22","num_nodes":"73","size_leaf_vector":"0"}},{"base_weights":[9.058379E0,6.5285325E0,9.657149E0,8.16479E0,2.32219E0,1.0241015E1,6.7279677E0,9.704822E0,3.1508417E0,5.6291956E-1,4.5740643E0,6.0784245E0,1.078743E1,3.5582273E0,1.0083125E1,1.3938321E1,7.141715E0,7.656301E0,1.6306217E0,-2.7246487E-1,2.32451E0,5.74634E0,1.4863424E0,2.3631868E0,7.2364964E0,1.1915221E1,8.414836E0,-1.5386642E0,5.124387E0,1.0834625E1,-2.189362E-1,2.952872E0,9.158095E0,2.1866496E0,-2.4974504E-2,5.046833E-1,-6.8426085E-1,-7.71954E-1,4.1237454E0,7.710089E0,5.3989315E-1,7.642073E0,1.30644045E1,4.553163E0,1.0913181E1,1.3834515E0,-2.615056E0,5.646212E-1,6.891831E0,1.70524E0,1.1405713E1,4.851865E0,3.1566098E-1,1.0423985E1,2.3077297E0,-2.2327542E-1,1.8581367E-1,-1.1964382E0,3.8507223E-2,1.0172999E0,4.8201275E0,3.1695437E0,8.247503E0,1.0239344E1,1.355806E0,5.864569E0,1.3988228E1,1.5312389E0,7.7407184E0,2.1754735E0,1.1550678E1,-6.0910845E-1,-3.0806692E0,1.7410945E0,-8.00059E-1,1.0096408E0,8.236173E0,5.150862E0,1.2767082E1],"categories":[],"categories_nodes":[],"categories_segments":[],"categories_sizes":[],"default_left":[1,1,1,1,1,1,1,1,1,1,1,1,1,1,1,0,1,0,1,1,0,0,0,1,1,1,1,1,1,1,0,1,1,0,1,0,0,1,1,1,0,1,1,1,1,0,1,1,1,0,1,0,0,0,0,0,0,0,0,0,0,0,0,0,0,0,0,0,0,0,0,0,0,0,0,0,0,0,0],"id":5,"left_children":[1,3,5,7,9,11,13,15,17,19,21,23,25,27,29,-1,31,-1,33,35,-1,-1,-1,37,39,41,43,45,47,49,-1,51,53,-1,55,-1,-1,57,59,61,-1,63,65,67,69,-1,71,73,75,-1,77,-1,-1,-1,-1,-1,-1,-1,-1,-1,-1,-1,-1,-1,-1,-1,-1,-1,-1,-1,-1,-1,-1,-1,-1,-1,-1,-1,-1],"loss_changes":[2.6869336E2,2.907594E2,2.3039258E2,2.1651416E2,5.288836E1,2.6195703E2,3.0444128E2,1.6087817E2,4.9159073E1,1.3877794E1,1.3176941E1,6.4646545E1,2.3688574E2,1.515705E2,1.18502075E2,0E0,1.16544495E2,0E0,7.419071E0,2.5855205E0,0E0,0E0,0E0,3.6300945E1,4.0237854E1,3.0774316E2,3.7481323E2,1.934451E1,1.08936554E2,5.3541992E1,0E0,3.3524773E1,7.133411E1,0E0,1.6688608E-1,0E0,0E0,1.0781555E0,3.7495804E0,5.5811157E0,0E0,3.1266028E2,3.4365332E2,1.7116556E2,1.1969873E2,0E0,1.859518E0,9.420527E0,7.07612E1,0E0,4.493567E1,0E0,0E0,0E0,0E0,0E0,0E0,0E0,0E0,0E0,0E0,0E0,0E0,0E0,0E0,0E0,0E0,0E0,0E0,0E0,0E0,0E0,0E0,0E0,0E0,0E0,0E0,0E0,0E0],"parents":[2147483647,0,0,1,1,2,2,3,3,4,4,5,5,6,6,7,7,8,8,9,9,10,10,11,11,12,12,13,13,14,14,16,16,18,18,19,19,23,23,24,24,25,25,26,26,27,27,28,28,29,29,31,31,32,32,34,34,37,37,38,38,39,39,41,41,42,42,43,43,44,44,46,46,47,47,48,48,50,50],"right_children":[2,4,6,8,10,12,14,16,18,20,22,24,26,28,30,-1,32,-1,34,36,-1,-1,-1,38,40,42,44,46,48,50,-1,52,54,-1,56,-1,-1,58,60,62,-1,64,66,68,70,-1,72,74,76,-1,78,-1,-1,-1,-1,-1,-1,-1,-1,-1,-1,-1,-1,-1,-1,-1,-1,-1,-1,-1,-1,-1,-1,-1,-1,-1,-1,-1,-1],"split_conditions":[2.0946282E-1,1.15E1,8.2684314E-1,3.5E0,5.0478077E-1,5E-1,9.1125584E-1,6.5E0,2.0611916E-1,1.05E1,7.8530036E-2,2.860525E-1,4.65E1,5E-1,6.2E1,1.3938321E0,2.7E1,7.656301E-1,7.480886E-1,4E0,2.32451E-1,5.74634E-1,1.4863424E-1,2.5516826E-1,1.4E1,1.55E1,8.5E0,5.5E0,5.5E0,1.5E0,-2.189362E-2,4E0,1.45E1,2.1866496E-1,3.85E1,5.0468333E-2,-6.842609E-2,4.4E1,2.1E1,4.5E0,5.3989317E-2,2.5E0,1.5E0,1.5E0,1.2330332E-1,1.3834515E-1,2.9735842E-1,6E0,1.8E1,1.70524E-1,2.8E1,4.851865E-1,3.15661E-2,1.0423985E0,2.3077297E-1,-2.2327542E-2,1.8581366E-2,-1.1964382E-1,3.8507225E-3,1.0172999E-1,4.8201275E-1,3.1695437E-1,8.2475036E-1,1.0239344E0,1.355806E-1,5.8645695E-1,1.3988228E0,1.531239E-1,7.740719E-1,2.1754734E-1,1.1550678E0,-6.0910847E-2,-3.0806693E-1,1.7410944E-1,-8.000591E-2,1.00964084E-1,8.236173E-1,5.1508623E-1,1.2767082E0],"split_indices":[20,4,20,12,14,21,20,2,8,3,20,14,0,12,0,0,0,0,8,5,0,0,0,8,3,0,2,5,2,4,0,1,5,0,0,0,0,0,0,5,0,18,1,9,8,0,8,4,0,0,0,0,0,0,0,0,0,0,0,0,0,0,0,0,0,0,0,0,0,0,0,0,0,0,0,0,0,0,0],"split_type":[0,0,0,0,0,0,0,0,0,0,0,0,0,0,0,0,0,0,0,0,0,0,0,0,0,0,0,0,0,0,0,0,0,0,0,0,0,0,0,0,0,0,0,0,0,0,0,0,0,0,0,0,0,0,0,0,0,0,0,0,0,0,0,0,0,0,0,0,0,0,0,0,0,0,0,0,0,0,0],"sum_hessian":[2.18E2,4.4E1,1.74E2,3.1E1,1.3E1,1.43E2,3.1E1,2.3E1,8E0,8E0,5E0,1.8E1,1.25E2,1.7E1,1.4E1,7E0,1.6E1,1E0,7E0,6E0,2E0,3E0,2E0,5E0,1.3E1,8.2E1,4.3E1,4E0,1.3E1,1.3E1,1E0,6E0,1E1,5E0,2E0,2E0,4E0,2E0,3E0,1.2E1,1E0,1.9E1,6.3E1,1.8E1,2.5E1,1E0,3E0,4E0,9E0,1E0,1.2E1,3E0,3E0,8E0,2E0,1E0,1E0,1E0,1E0,1E0,2E0,2E0,1E1,1.3E1,6E0,8E0,5.5E1,1E1,8E0,2E0,2.3E1,1E0,2E0,2E0,2E0,2E0,7E0,3E0,9E0],"tree_param":{"num_deleted":"0","num_feature":"22","num_nodes":"79","size_leaf_vector":"0"}},{"base_weights":[8.31103E0,6.98347E0,9.598515E0,8.263261E0,3.8420835E0,9.792879E0,-4.685502E-1,9.751536E0,5.5569673E0,1.0284572E0,5.1430154E0,1.1169998E1,8.4606085E0,-1.6259012E0,9.230759E-1,1.0567922E1,3.3435206E0,8.764835E0,2.931453E0,4.3703046E0,-1.1887547E0,7.6969304E0,2.1605158E0,1.2617615E1,7.047559E0,9.238994E-1,9.312461E0,9.299563E0,1.57624E1,7.3182874E0,2.8995624E-1,9.617479E0,-7.334451E-1,1.0494125E1,1.8692886E0,4.9559755E0,1.0138102E0,1.6331386E-2,-2.3979235E0,1.2977271E0,8.160701E0,8.717068E-1,5.736374E0,3.3521082E0,1.3381503E1,8.9019E0,-2.7735543E-1,-6.60323E-1,3.2563035E0,5.6848936E0,1.0375884E1,1.0067944E1,2.3683462E0,1.6803297E1,4.7585077E0,-1.2609371E0,1.7441975E0,1.7370296E-1,1.0460213E1,2.7135851E0,-1.3085295E-1,6.249318E-1,-2.9205167E-1,-7.1565664E-1,-2.7201269E0,3.384112E0,8.846152E0,-1.0412159E0,1.4800894E0,1.36676655E1,2.2552295E0,1.1411735E1,3.1057856E0,6.830764E-1,-1.5793254E0,-7.627809E-1,-1.2524569E-1,1.1290876E1,3.1295457E0,6.1754932E0,1.2014002E1],"categories":[],"categories_nodes":[],"categories_segments":[],"categories_sizes":[],"default_left":[1,1,1,1,1,1,1,1,1,1,1,1,1,0,0,1,1,1,1,1,1,1,1,1,1,1,1,1,1,0,1,1,0,0,1,0,0,1,1,0,1,1,0,0,1,1,1,1,0,1,1,0,0,0,0,0,0,0,0,0,0,0,0,0,0,0,0,0,0,0,0,0,0,0,0,0,0,0,0,0,0],"id":6,"left_children":[1,3,5,7,9,11,13,15,17,19,21,23,25,-1,-1,27,29,31,33,35,37,39,41,43,45,47,49,51,53,-1,55,57,-1,-1,59,-1,-1,61,63,-1,65,67,-1,-1,69,71,73,75,-1,77,79,-1,-1,-1,-1,-1,-1,-1,-1,-1,-1,-1,-1,-1,-1,-1,-1,-1,-1,-1,-1,-1,-1,-1,-1,-1,-1,-1,-1,-1,-1],"loss_changes":[3.0557715E2,4.1450684E2,2.1591016E2,2.5997266E2,1.1916205E2,9.997266E1,6.3326297E0,2.2100537E2,2.269754E2,9.411022E1,1.585628E2,2.0349463E2,3.637661E2,0E0,0E0,1.3671973E2,8.283847E1,1.123363E2,1.2497392E2,4.8045883E0,1.1696382E1,2.5022705E1,5.030273E1,2.028667E2,2.0621234E2,2.8015541E1,1.4161133E2,1.732107E2,2.1887207E-1,0E0,1.347619E1,9.368616E1,0E0,0E0,2.9063198E1,0E0,0E0,1.1209227E0,2.214508E-1,0E0,6.0789795E0,1.3178982E1,0E0,0E0,7.106201E1,1.3912506E2,6.080614E0,1.7857957E-1,0E0,1.6521802E2,1.9415625E2,0E0,0E0,0E0,0E0,0E0,0E0,0E0,0E0,0E0,0E0,0E0,0E0,0E0,0E0,0E0,0E0,0E0,0E0,0E0,0E0,0E0,0E0,0E0,0E0,0E0,0E0,0E0,0E0,0E0,0E0],"parents":[2147483647,0,0,1,1,2,2,3,3,4,4,5,5,6,6,7,7,8,8,9,9,10,10,11,11,12,12,15,15,16,16,17,17,18,18,19,19,20,20,21,21,22,22,23,23,24,24,25,25,26,26,27,27,28,28,30,30,31,31,34,34,37,37,38,38,40,40,41,41,44,44,45,45,46,46,47,47,49,49,50,50],"right_children":[2,4,6,8,10,12,14,16,18,20,22,24,26,-1,-1,28,30,32,34,36,38,40,42,44,46,48,50,52,54,-1,56,58,-1,-1,60,-1,-1,62,64,-1,66,68,-1,-1,70,72,74,76,-1,78,80,-1,-1,-1,-1,-1,-1,-1,-1,-1,-1,-1,-1,-1,-1,-1,-1,-1,-1,-1,-1,-1,-1,-1,-1,-1,-1,-1,-1,-1,-1],"split_conditions":[4.4987214E-1,7.117593E-1,1.55E1,9.5E0,7.8899467E-1,4.901381E-1,2.65E1,4.0655452E-1,6.5E0,2.682183E-1,2.5E0,3.5E0,5.1815724E-1,-1.6259013E-1,9.230759E-2,5.955086E-1,7E0,9.13031E-1,5E-1,4.9E1,7.720754E-1,2.2428986E-1,1.2E1,1.07557565E-1,1E1,8.644593E-1,2.8808963E-1,8.8155377E-1,1.25E1,7.3182875E-1,5.75E1,9.305461E-2,-7.3344514E-2,1.0494126E0,7.812984E-1,4.9559757E-1,1.0138102E-1,6E0,2E0,1.2977271E-1,5E-1,2E0,5.736374E-1,3.3521083E-1,6.3E1,8.059853E-1,4E1,4.8E1,3.2563037E-1,3.5E0,6.768881E-1,1.0067943E0,2.3683463E-1,1.6803297E0,4.758508E-1,-1.2609372E-1,1.7441975E-1,1.7370297E-2,1.0460213E0,2.7135852E-1,-1.3085295E-2,6.2493183E-2,-2.9205168E-2,-7.1565665E-2,-2.7201268E-1,3.3841118E-1,8.8461524E-1,-1.0412159E-1,1.4800894E-1,1.3667666E0,2.2552295E-1,1.1411735E0,3.1057855E-1,6.830764E-2,-1.5793255E-1,-7.627809E-2,-1.2524569E-2,1.1290877E0,3.1295457E-1,6.1754936E-1,1.2014002E0],"split_indices":[14,17,5,4,17,8,0,14,2,11,18,12,8,0,0,17,2,11,3,0,17,8,4,11,3,14,17,11,2,0,0,17,0,0,8,0,0,3,1,0,21,3,0,0,0,11,0,0,0,6,8,0,0,0,0,0,0,0,0,0,0,0,0,0,0,0,0,0,0,0,0,0,0,0,0,0,0,0,0,0,0],"split_type":[0,0,0,0,0,0,0,0,0,0,0,0,0,0,0,0,0,0,0,0,0,0,0,0,0,0,0,0,0,0,0,0,0,0,0,0,0,0,0,0,0,0,0,0,0,0,0,0,0,0,0,0,0,0,0,0,0,0,0,0,0,0,0,0,0,0,0,0,0,0,0,0,0,0,0,0,0,0,0,0,0],"sum_hessian":[2.17E2,1.1E2,1.07E2,7.7E1,3.3E1,1.05E2,2E0,4.8E1,2.9E1,1.1E1,2.2E1,4.8E1,5.7E1,1E0,1E0,4.2E1,6E0,1.2E1,1.7E1,4E0,7E0,1.1E1,1.1E1,3.4E1,1.4E1,6E0,5.1E1,3.6E1,6E0,2E0,4E0,1.1E1,1E0,1E0,1.6E1,3E0,1E0,4E0,3E0,1E0,1E1,9E0,2E0,3E0,3.1E1,1.1E1,3E0,4E0,2E0,1.3E1,3.8E1,3.2E1,4E0,5E0,1E0,2E0,2E0,1E0,1E1,1.1E1,5E0,1E0,3E0,1E0,2E0,2E0,8E0,2E0,7E0,3E1,1E0,7E0,4E0,2E0,1E0,3E0,1E0,3E0,1E1,1.2E1,2.6E1],"tree_param":{"num_deleted":"0","num_feature":"22","num_nodes":"81","size_leaf_vector":"0"}},{"base_weights":[7.3814125E0,1.1972133E1,7.0736785E0,1.3302169E1,3.5479653E0,7.2595E0,8.335996E-1,1.4028004E1,3.38483E0,7.61624E0,4.500479E0,-1.8719964E-1,2.257065E0,4.920366E0,8.081091E0,5.840275E0,-7.155847E-1,7.192099E-1,-5.936045E-1,9.992659E0,3.3832297E0,8.611363E0,5.3024726E0,-2.2382796E-1,6.923577E0,1.0264163E0,-1.2692682E0,-8.748388E-1,-2.0824678E-1,7.5417886E0,2.1108074E0,9.793272E0,7.0150146E0,7.493438E-2,7.6216598E0,-3.1929827E-1,-8.5571766E-2,1.9500117E0,8.833395E0],"categories":[],"categories_nodes":[],"categories_segments":[],"categories_sizes":[],"default_left":[1,1,1,1,0,1,1,0,0,1,1,1,0,1,1,1,1,0,1,0,1,1,1,1,1,0,0,0,0,0,0,0,0,0,0,0,0,0,0],"id":7,"left_children":[1,3,5,7,-1,9,11,-1,-1,13,15,17,-1,19,21,23,25,-1,27,-1,29,31,33,35,37,-1,-1,-1,-1,-1,-1,-1,-1,-1,-1,-1,-1,-1,-1],"loss_changes":[2.1763477E2,8.725781E1,2.2933594E2,2.4501099E1,0E0,1.5962012E2,1.059403E1,0E0,0E0,1.7703809E2,1.7889066E2,2.2687724E0,0E0,1.8450305E2,1.6945898E2,1.3293481E2,7.089901E0,0E0,2.5132084E-1,0E0,1.05783936E2,1.595957E2,3.1464355E2,2.5474519E-2,1.4425098E2,0E0,0E0,0E0,0E0,0E0,0E0,0E0,0E0,0E0,0E0,0E0,0E0,0E0,0E0],"parents":[2147483647,0,0,1,1,2,2,3,3,5,5,6,6,9,9,10,10,11,11,13,13,14,14,15,15,16,16,18,18,20,20,21,21,22,22,23,23,24,24],"right_children":[2,4,6,8,-1,10,12,-1,-1,14,16,18,-1,20,22,24,26,-1,28,-1,30,32,34,36,38,-1,-1,-1,-1,-1,-1,-1,-1,-1,-1,-1,-1,-1,-1],"split_conditions":[5.7933304E-2,3.5E0,6.25E1,1.45E1,3.5479653E-1,1.45E1,6.35E1,1.4028004E0,3.38483E-1,1.576974E-1,9.280705E-1,1.5E0,2.257065E-1,5.5E0,8.195704E-1,2.35E1,3.1E1,7.192099E-2,3.5E0,9.9926585E-1,2.1482188E-1,5E-1,5E-1,1.15E1,4.5E0,1.02641635E-1,-1.2692682E-1,-8.748388E-2,-2.0824678E-2,7.541789E-1,2.1108074E-1,9.793272E-1,7.015015E-1,7.4934377E-3,7.6216596E-1,-3.192983E-2,-8.557177E-3,1.9500117E-1,8.833395E-1],"split_indices":[11,21,0,5,0,3,0,0,0,20,11,1,0,2,20,0,0,0,1,0,8,13,13,0,2,0,0,0,0,0,0,0,0,0,0,0,0,0,0],"split_type":[0,0,0,0,0,0,0,0,0,0,0,0,0,0,0,0,0,0,0,0,0,0,0,0,0,0,0,0,0,0,0,0,0,0,0,0,0,0,0],"sum_hessian":[2.13E2,1.1E1,2.02E2,9E0,2E0,1.96E2,6E0,8E0,1E0,1.72E2,2.4E1,4E0,2E0,2.7E1,1.45E2,1.9E1,5E0,1E0,3E0,5E0,2.2E1,1.2E2,2.5E1,3E0,1.6E1,1E0,4E0,1E0,2E0,4E0,1.8E1,6.6E1,5.4E1,8E0,1.7E1,1E0,2E0,5E0,1.1E1],"tree_param":{"num_deleted":"0","num_feature":"22","num_nodes":"39","size_leaf_vector":"0"}},{"base_weights":[6.71461E0,6.066445E0,8.916173E0,1.4240061E1,5.8343434E0,6.3609233E0,1.10999155E1,-4.0216246E-1,5.989854E0,-4.033978E-1,7.7339573E0,-2.8479095E0,1.1830165E1,-1.3207504E0,1.6360946E0,6.1592593E0,5.3054124E-1,7.483735E-1,-8.78434E-1,2.7592008E0,9.208262E0,1.2598563E1,2.507988E0,-2.9364443E-1,-1.5652375E0,5.4404373E0,7.6031055E0,-1.4614842E0,3.0097282E0,-1.0805774E-1,-1.0992068E0,-1.3803501E0,7.358868E0,1.0104035E1,2.2571623E0,1.0659506E-1,5.9194174E0,5.1481533E0,9.852132E0,-1.7680861E0,-1.0857105E-1,1.0607769E1,2.0296147E0,3.2405703E0,1.4517307E-1],"categories":[],"categories_nodes":[],"categories_segments":[],"categories_sizes":[],"default_left":[1,1,1,0,1,1,1,1,1,1,1,0,1,1,0,1,1,0,1,1,1,0,0,0,0,1,1,0,0,0,0,1,0,1,1,0,0,0,0,0,0,0,0,0,0],"id":8,"left_children":[1,3,5,-1,7,9,11,13,15,17,19,-1,21,23,-1,25,27,-1,29,31,33,-1,-1,-1,-1,35,37,-1,-1,-1,-1,39,-1,41,43,-1,-1,-1,-1,-1,-1,-1,-1,-1,-1],"loss_changes":[2.541377E2,2.3942676E2,1.9165479E2,0E0,1.6437207E2,2.2602332E2,2.7814038E2,1.1522464E1,1.4748096E2,3.3930619E0,1.2127869E2,0E0,1.3315552E2,5.448332E-1,0E0,1.2261865E2,3.4030293E1,0E0,5.6153464E-1,1.2440116E2,7.059253E1,0E0,0E0,0E0,0E0,2.7784253E2,2.2534229E2,0E0,0E0,0E0,0E0,1.7804956E0,0E0,3.1345947E1,5.760398E0,0E0,0E0,0E0,0E0,0E0,0E0,0E0,0E0,0E0,0E0],"parents":[2147483647,0,0,1,1,2,2,4,4,5,5,6,6,7,7,8,8,9,9,10,10,12,12,13,13,15,15,16,16,18,18,19,19,20,20,25,25,26,26,31,31,33,33,34,34],"right_children":[2,4,6,-1,8,10,12,14,16,18,20,-1,22,24,-1,26,28,-1,30,32,34,-1,-1,-1,-1,36,38,-1,-1,-1,-1,40,-1,42,44,-1,-1,-1,-1,-1,-1,-1,-1,-1,-1],"split_conditions":[7.7211607E-1,3.223066E-2,5E-1,1.4240061E0,8.5E0,1.5E0,1.5E0,1.35E1,1.55E1,2.5E0,2.586473E-1,-2.8479096E-1,1.55E1,1.5E0,1.6360946E-1,4.922675E-1,1E1,7.483735E-2,2.65E1,1.35E1,1.45E1,1.2598563E0,2.507988E-1,-2.9364442E-2,-1.5652375E-1,1.45E1,4.993927E-1,-1.4614843E-1,3.0097282E-1,-1.0805774E-2,-1.0992068E-1,5.7E1,7.358868E-1,6.25E1,2.2E1,1.0659507E-2,5.919418E-1,5.1481533E-1,9.852132E-1,-1.7680861E-1,-1.0857105E-2,1.060777E0,2.0296147E-1,3.2405704E-1,1.4517307E-2],"split_indices":[14,11,7,0,0,1,4,4,3,5,11,0,4,1,0,14,5,0,0,3,4,0,0,0,0,0,20,0,0,0,0,0,0,0,0,0,0,0,0,0,0,0,0,0,0],"split_type":[0,0,0,0,0,0,0,0,0,0,0,0,0,0,0,0,0,0,0,0,0,0,0,0,0,0,0,0,0,0,0,0,0,0,0,0,0,0,0,0,0,0,0,0,0],"sum_hessian":[2.15E2,1.69E2,4.6E1,3E0,1.66E2,2.3E1,2.3E1,4E0,1.62E2,4E0,1.9E1,1E0,2.2E1,3E0,1E0,1.57E2,5E0,1E0,3E0,5E0,1.4E1,2E1,2E0,1E0,2E0,1.08E2,4.9E1,3E0,2E0,1E0,2E0,3E0,2E0,1.2E1,2E0,9E0,9.9E1,2.5E1,2.4E1,2E0,1E0,1.1E1,1E0,1E0,1E0],"tree_param":{"num_deleted":"0","num_feature":"22","num_nodes":"45","size_leaf_vector":"0"}},{"base_weights":[6.166609E0,6.726104E0,4.389151E0,7.1581635E0,2.3315506E0,3.5700366E0,1.1210999E1,4.388841E0,7.678388E0,-4.4249207E-1,4.230078E0,7.5414367E0,1.8297532E0,5.45854E0,-2.3242877E0,3.3189201E0,8.11174E0,1.0086213E0,-1.7829825E0,4.997553E0,1.0292779E0,8.667666E0,5.2270585E-1,7.095009E0,4.4809097E-1,7.0524745E0,3.3683746E0,7.832219E0,9.442405E-1,8.832614E0,4.6784787E0,1.7331066E0,1.8942404E-1,-2.1362023E0,-3.6166143E-1,4.9812555E-2,1.4941044E0,9.470373E0,-8.105469E-2,1.7133391E0,-9.2928034E-1,2.2994685E0,8.553331E0,1.8890319E0,-1.3598433E0,7.646841E0,5.544052E-1,3.974371E-1,3.6257248E0,1.6375808E0,-9.883003E-1,5.7303433E0,9.478291E0,-7.134918E-1,7.6367316E0,3.8727856E-1,-1.031425E-1,2.553564E0,9.906698E0,9.052409E-2,3.6762242E0,-2.3747525E0,2.200094E-1],"categories":[],"categories_nodes":[],"categories_segments":[],"categories_sizes":[],"default_left":[1,1,1,1,1,1,0,1,1,1,1,1,1,1,0,1,1,1,1,0,1,1,1,1,1,1,1,0,1,1,1,0,1,0,0,0,0,1,0,0,0,0,0,1,1,0,0,0,0,0,0,0,0,0,0,0,0,0,0,0,0,0,0],"id":9,"left_children":[1,3,5,7,9,11,-1,13,15,17,19,21,23,25,-1,27,29,31,33,-1,35,37,39,41,43,45,47,-1,49,51,53,-1,55,-1,-1,-1,-1,57,-1,-1,-1,-1,-1,59,61,-1,-1,-1,-1,-1,-1,-1,-1,-1,-1,-1,-1,-1,-1,-1,-1,-1,-1],"loss_changes":[1.7036816E2,2.7001562E2,2.4495795E2,1.6367236E2,8.087072E1,3.1103503E2,0E0,1.8503183E2,1.8844434E2,1.5414779E1,1.6964935E1,1.0613519E2,2.4416417E2,4.6207947E1,0E0,1.21216156E2,2.1359668E2,2.0456934E0,1.2355738E0,0E0,1.291419E0,8.503949E1,6.7785215E0,2.928598E1,7.551233E1,3.8245117E1,6.9692917E0,0E0,1.3677597E1,1.1394336E2,3.24465E2,0E0,2.1360171E-1,0E0,0E0,0E0,0E0,7.9003296E0,0E0,0E0,0E0,0E0,0E0,5.1095688E1,2.1366758E1,0E0,0E0,0E0,0E0,0E0,0E0,0E0,0E0,0E0,0E0,0E0,0E0,0E0,0E0,0E0,0E0,0E0,0E0],"parents":[2147483647,0,0,1,1,2,2,3,3,4,4,5,5,7,7,8,8,9,9,10,10,11,11,12,12,13,13,15,15,16,16,17,17,18,18,20,20,21,21,22,22,23,23,24,24,25,25,26,26,28,28,29,29,30,30,32,32,37,37,43,43,44,44],"right_children":[2,4,6,8,10,12,-1,14,16,18,20,22,24,26,-1,28,30,32,34,-1,36,38,40,42,44,46,48,-1,50,52,54,-1,56,-1,-1,-1,-1,58,-1,-1,-1,-1,-1,60,62,-1,-1,-1,-1,-1,-1,-1,-1,-1,-1,-1,-1,-1,-1,-1,-1,-1,-1],"split_conditions":[1.25E1,5.95E1,9.353922E-1,5E-1,3.0504262E-1,3.690508E-1,1.1210998E0,8.6706716E-1,1.5812036E-1,3.5E0,5E-1,1.15E1,1.5E0,1.25E1,-2.3242877E-1,6.5E0,8.195704E-1,6.25E1,6.1E1,4.997553E-1,6.15E1,8.857031E-1,2.55E1,4.2250425E-1,5.8651316E-1,1.35E1,1.5E1,7.832219E-1,1.25E1,1.5E0,8.458255E-1,1.7331067E-1,1.05E1,-2.1362023E-1,-3.6166143E-2,4.9812556E-3,1.4941044E-1,1.5E0,-8.105469E-3,1.7133391E-1,-9.292804E-2,2.2994685E-1,8.5533315E-1,7E0,5E-1,7.6468414E-1,5.5440523E-2,3.974371E-2,3.625725E-1,1.6375808E-1,-9.883004E-2,5.7303435E-1,9.4782907E-1,-7.134918E-2,7.636732E-1,3.8727857E-2,-1.031425E-2,2.553564E-1,9.9066985E-1,9.05241E-3,3.6762244E-1,-2.3747526E-1,2.200094E-2],"split_indices":[3,0,14,21,11,17,0,14,20,6,7,5,5,5,0,2,20,0,0,0,0,8,0,14,14,4,0,0,6,5,20,0,2,0,0,0,0,5,0,0,0,0,0,6,19,0,0,0,0,0,0,0,0,0,0,0,0,0,0,0,0,0,0],"split_type":[0,0,0,0,0,0,0,0,0,0,0,0,0,0,0,0,0,0,0,0,0,0,0,0,0,0,0,0,0,0,0,0,0,0,0,0,0,0,0,0,0,0,0,0,0,0,0,0,0,0,0,0,0,0,0,0,0,0,0,0,0,0,0],"sum_hessian":[2E2,1.5E2,5E1,1.36E2,1.4E1,4.6E1,4E0,2.3E1,1.13E2,6E0,8E0,1.3E1,3.3E1,2E1,3E0,1.1E1,1.02E2,3E0,3E0,6E0,2E0,1.1E1,2E0,6E0,2.7E1,1E1,1E1,3E0,8E0,8.3E1,1.9E1,1E0,2E0,2E0,1E0,1E0,1E0,1E1,1E0,1E0,1E0,2E0,4E0,1.5E1,1.2E1,9E0,1E0,1E0,9E0,6E0,2E0,1.6E1,6.7E1,7E0,1.2E1,1E0,1E0,1E0,9E0,8E0,7E0,7E0,5E0],"tree_param":{"num_deleted":"0","num_feature":"22","num_nodes":"63","size_leaf_vector":"0"}},{"base_weights":[5.582949E0,1.1409087E1,5.3702617E0,2.0730805E0,5.7297764E0,3.8779361E0,-2.4839263E-1,9.863898E0,5.4306455E0,5.156697E0,8.0057967E-1,-1.2181582E0,2.743702E0,1.1021587E1,2.7169685E0,6.0412745E0,3.9894178E0,5.730203E0,2.8432322E-1,-8.036455E-2,1.4146639E0,-2.7695787E0,5.768938E-1,1.2839978E1,5.0840063E0,6.2792745E0,1.6863678E0,8.483444E0,2.876424E0,4.745655E-1,6.4132133E0,2.4620771E-2,1.392993E0,2.4442909E0,6.4933147E0,1.0835614E-1,3.2372904E0,1.1065727E1,1.1980158E0,5.351353E-1,5.3980365E0],"categories":[],"categories_nodes":[],"categories_segments":[],"categories_sizes":[],"default_left":[1,0,1,1,1,1,1,1,1,1,1,1,0,1,0,1,1,1,0,0,0,0,1,0,0,1,1,1,1,0,0,0,0,0,0,0,0,0,0,0,0],"id":10,"left_children":[1,-1,3,5,7,9,11,13,15,17,19,21,-1,23,-1,25,27,29,-1,-1,-1,-1,31,-1,-1,33,35,37,39,-1,-1,-1,-1,-1,-1,-1,-1,-1,-1,-1,-1],"loss_changes":[2.1629932E2,0E0,2.4653564E2,9.733148E1,1.8881543E2,4.702928E1,3.52602E1,6.93418E1,1.3870898E2,2.3519821E1,2.818559E0,2.6661678E1,0E0,4.268982E1,0E0,1.22078125E2,2.6570367E2,2.5673737E1,0E0,0E0,0E0,0E0,2.2192512E0,0E0,0E0,8.3450195E1,1.922821E1,1.9368658E2,2.804948E2,0E0,0E0,0E0,0E0,0E0,0E0,0E0,0E0,0E0,0E0,0E0,0E0],"parents":[2147483647,0,0,2,2,3,3,4,4,5,5,6,6,7,7,8,8,9,9,10,10,11,11,13,13,15,15,16,16,17,17,22,22,25,25,26,26,27,27,28,28],"right_children":[2,-1,4,6,8,10,12,14,16,18,20,22,-1,24,-1,26,28,30,-1,-1,-1,-1,32,-1,-1,34,36,38,40,-1,-1,-1,-1,-1,-1,-1,-1,-1,-1,-1,-1],"split_conditions":[4.2657733E-2,1.1409087E0,1.5239011E-1,5E-1,5.4508995E-2,2.5E0,8.5E0,3E0,7.1729136E-1,8.3287954E-1,5E-1,5E-1,2.743702E-1,9.5E0,2.7169687E-1,1.55E1,5E-1,3.5E0,2.8432323E-2,-8.036455E-3,1.414664E-1,-2.7695787E-1,1.55E1,1.2839979E0,5.084006E-1,6.34718E-2,8E0,5E-1,4.6640736E-1,4.745655E-2,6.4132136E-1,2.4620772E-3,1.392993E-1,2.444291E-1,6.493315E-1,1.0835614E-2,3.2372904E-1,1.1065727E0,1.1980158E-1,5.3513534E-2,5.398037E-1],"split_indices":[17,0,17,19,11,18,6,21,17,8,16,7,0,4,0,4,12,5,0,0,0,0,2,0,0,20,5,19,11,0,0,0,0,0,0,0,0,0,0,0,0],"split_type":[0,0,0,0,0,0,0,0,0,0,0,0,0,0,0,0,0,0,0,0,0,0,0,0,0,0,0,0,0,0,0,0,0,0,0,0,0,0,0,0,0],"sum_hessian":[2.23E2,6E0,2.17E2,2.2E1,1.95E2,1.2E1,1E1,1.1E1,1.84E2,8E0,4E0,8E0,2E0,9E0,2E0,1.27E2,5.7E1,7E0,1E0,2E0,2E0,4E0,4E0,6E0,3E0,1.2E2,7E0,1E1,4.7E1,1E0,6E0,3E0,1E0,7E0,1.13E2,4E0,3E0,7E0,3E0,2.5E1,2.2E1],"tree_param":{"num_deleted":"0","num_feature":"22","num_nodes":"41","size_leaf_vector":"0"}},{"base_weights":[5.0897985E0,4.826779E0,9.071224E0,5.3798394E0,3.04894E0,-4.0228527E-2,1.0897537E1,6.4326525E0,3.831711E0,9.6735185E-1,5.2636876E0,2.970028E-2,-9.004307E-2,8.960704E0,5.3613615E0,4.308648E0,-1.4967914E0,-2.1998236E0,2.1858544E0,8.783071E0,1.6101267E0,5.5904956E0,1.1641626E1,6.2959943E0,2.7671976E0,2.2155962E0,6.0054235E0,-2.838054E0,7.90489E-1,-2.957558E0,4.89192E-2,-6.066066E-1,4.5257416E0,3.5536957E-1,1.0433074E1,4.514835E0,-1.5245993E0,-5.2535933E-1,6.750229E0,8.052328E0,2.7229156E0,2.6362142E-2,6.532551E0,6.883523E-1,4.1945586E0,-1.0941791E-2,6.8652954E0,-3.3330073E0,-6.765969E-1,-3.5031557E-2,1.2207651E0,-3.214034E0,-8.375882E-1,1.0457119E0,-3.3465123E0,-1.1095128E0,5.200218E0,-8.980484E-1,1.4311028E0,4.5599003E0,1.133138E1,6.070109E0,4.1776595E-1,3.6043105E-1,-2.3506978E0],"categories":[],"categories_nodes":[],"categories_segments":[],"categories_sizes":[],"default_left":[1,1,1,1,1,1,0,1,1,1,1,0,0,1,1,1,1,1,1,1,1,1,0,1,1,1,1,1,1,1,0,1,1,1,1,1,1,0,0,0,0,0,0,0,0,0,0,0,0,0,0,0,0,0,0,0,0,0,0,0,0,0,0,0,0],"id":11,"left_children":[1,3,5,7,9,11,-1,13,15,17,19,-1,-1,21,23,25,27,29,31,33,35,37,-1,39,41,43,45,47,49,51,-1,53,55,57,59,61,63,-1,-1,-1,-1,-1,-1,-1,-1,-1,-1,-1,-1,-1,-1,-1,-1,-1,-1,-1,-1,-1,-1,-1,-1,-1,-1,-1,-1],"loss_changes":[1.7822021E2,1.8123096E2,2.001228E2,2.2309521E2,2.2541779E2,1.3124719E-2,0E0,1.9299536E2,1.6909631E2,1.0900722E2,2.944569E2,0E0,0E0,1.6079932E2,1.4017615E2,1.9622925E2,2.0650513E1,1.3776276E1,1.3342621E2,1.6316125E2,1.2525433E2,9.57522E1,0E0,2.7302344E2,1.9591183E2,8.173869E1,1.6562085E2,2.0241776E0,1.1083708E0,5.702934E-1,0E0,4.877146E1,4.757901E1,5.3302298E0,1.0891113E0,4.2068573E1,1.1747808E1,0E0,0E0,0E0,0E0,0E0,0E0,0E0,0E0,0E0,0E0,0E0,0E0,0E0,0E0,0E0,0E0,0E0,0E0,0E0,0E0,0E0,0E0,0E0,0E0,0E0,0E0,0E0,0E0],"parents":[2147483647,0,0,1,1,2,2,3,3,4,4,5,5,7,7,8,8,9,9,10,10,13,13,14,14,15,15,16,16,17,17,18,18,19,19,20,20,21,21,23,23,24,24,25,25,26,26,27,27,28,28,29,29,31,31,32,32,33,33,34,34,35,35,36,36],"right_children":[2,4,6,8,10,12,-1,14,16,18,20,-1,-1,22,24,26,28,30,32,34,36,38,-1,40,42,44,46,48,50,52,-1,54,56,58,60,62,64,-1,-1,-1,-1,-1,-1,-1,-1,-1,-1,-1,-1,-1,-1,-1,-1,-1,-1,-1,-1,-1,-1,-1,-1,-1,-1,-1,-1],"split_conditions":[9.4149935E-1,6.992688E-1,2.5E0,9.5E0,6.083467E-1,4.5E0,1.0897537E0,2.1801984E-1,9.268581E-1,5E-1,2.5E0,2.970028E-3,-9.004307E-3,1.5E0,2.5E0,4.4264826E-1,2.5E0,5E-1,8E0,2.5E0,1.5E0,1.7102481E-1,1.1641626E0,9.5E0,1.15E1,1.05E1,1.05E1,1.2E1,3.5E0,7.5E0,4.8919204E-3,1.05E1,1.5E0,3.5E0,1.158143E-1,8.893796E-1,7.609017E-1,-5.2535933E-2,6.750229E-1,8.052328E-1,2.7229157E-1,2.6362143E-3,6.532551E-1,6.883523E-2,4.1945586E-1,-1.0941791E-3,6.865296E-1,-3.3330074E-1,-6.765969E-2,-3.5031557E-3,1.2207651E-1,-3.214034E-1,-8.375882E-2,1.04571186E-1,-3.3465123E-1,-1.1095128E-1,5.2002186E-1,-8.980484E-2,1.4311028E-1,4.5599005E-1,1.1331381E0,6.070109E-1,4.1776594E-2,3.6043104E-2,-2.3506978E-1],"split_indices":[17,17,5,4,14,1,0,14,8,15,9,0,0,12,18,14,1,7,6,5,15,17,0,3,3,6,4,3,1,5,0,2,2,1,8,17,14,0,0,0,0,0,0,0,0,0,0,0,0,0,0,0,0,0,0,0,0,0,0,0,0,0,0,0,0],"split_type":[0,0,0,0,0,0,0,0,0,0,0,0,0,0,0,0,0,0,0,0,0,0,0,0,0,0,0,0,0,0,0,0,0,0,0,0,0,0,0,0,0,0,0,0,0,0,0,0,0,0,0,0,0,0,0,0,0,0,0,0,0,0,0,0,0],"sum_hessian":[2.11E2,2E2,1.1E1,1.51E2,4.9E1,2E0,9E0,8.8E1,6.3E1,2.6E1,2.3E1,1E0,1E0,2.4E1,6.4E1,5.8E1,5E0,7E0,1.9E1,1.1E1,1.2E1,1.2E1,1.2E1,4.6E1,1.8E1,2.7E1,3.1E1,3E0,2E0,5E0,2E0,9E0,1E1,2E0,9E0,6E0,6E0,2E0,1E1,3E1,1.6E1,1.1E1,7E0,1.6E1,1.1E1,4E0,2.7E1,2E0,1E0,1E0,1E0,4E0,1E0,6E0,3E0,1E0,9E0,1E0,1E0,2E0,7E0,4E0,2E0,2E0,4E0],"tree_param":{"num_deleted":"0","num_feature":"22","num_nodes":"65","size_leaf_vector":"0"}},{"base_weights":[4.3372254E0,9.1601715E0,4.000364E0,1.3595476E0,9.696928E0,4.4235983E0,1.7373163E0,1.0390466E1,4.152826E0,3.8773508E0,8.036684E0,-2.9678123E0,3.1182282E0,1.09082775E1,2.8650765E0,4.580812E0,1.2061366E0,1.5927527E0,9.022186E0,3.783733E-1,-4.14627E0,8.283407E0,2.084361E0,3.7706044E0,8.782465E0,-2.822825E0,3.4509652E0,-5.1930904E-2,2.1582909E0,4.8240414E0,1.1255183E1,-1.3467383E-1,7.022338E-1,-1.8587399E0,-4.82535E0,6.8562746E-1,5.9331684E0,3.3121126E0,9.323339E0,9.442405E0,2.335296E0,-3.2981255E0,1.2027402E0,-2.7090814E0,4.2419744E0,6.157663E0,-2.2556562E0,-8.749784E-1,2.3434532E0,7.2942314E0,-4.360726E-1],"categories":[],"categories_nodes":[],"categories_segments":[],"categories_sizes":[],"default_left":[1,1,1,0,1,1,1,1,0,1,1,1,1,0,0,1,1,1,1,1,1,0,1,1,1,1,1,0,0,1,0,0,0,0,0,1,1,0,0,0,0,0,0,0,0,0,0,0,0,0,0],"id":12,"left_children":[1,3,5,-1,7,9,11,13,-1,15,17,19,21,-1,-1,23,25,27,29,31,33,-1,35,37,39,41,43,-1,-1,45,-1,-1,-1,-1,-1,47,49,-1,-1,-1,-1,-1,-1,-1,-1,-1,-1,-1,-1,-1,-1],"loss_changes":[3.0616064E2,4.1248047E1,1.8291699E2,0E0,2.9907227E0,2.9843677E2,2.2366748E2,7.7144775E0,0E0,2.7070215E2,1.1899048E2,3.3115532E1,1.2157724E2,0E0,0E0,3.617732E2,2.9916E2,3.8326073E0,1.144447E2,5.9303963E-1,3.5141754E-1,0E0,1.1975156E2,2.211626E2,5.4534546E1,2.6927025E1,1.1381758E2,0E0,0E0,8.942267E1,0E0,0E0,0E0,0E0,0E0,4.8620296E1,5.5194427E1,0E0,0E0,0E0,0E0,0E0,0E0,0E0,0E0,0E0,0E0,0E0,0E0,0E0,0E0],"parents":[2147483647,0,0,1,1,2,2,4,4,5,5,6,6,7,7,9,9,10,10,11,11,12,12,15,15,16,16,17,17,18,18,19,19,20,20,22,22,23,23,24,24,25,25,26,26,29,29,35,35,36,36],"right_children":[2,4,6,-1,8,10,12,14,-1,16,18,20,22,-1,-1,24,26,28,30,32,34,-1,36,38,40,42,44,-1,-1,46,-1,-1,-1,-1,-1,48,50,-1,-1,-1,-1,-1,-1,-1,-1,-1,-1,-1,-1,-1,-1],"split_conditions":[5.7933304E-2,3.4291283E-3,8.211132E-1,1.3595477E-1,3.5E0,7.089467E-1,8.442841E-1,1.3E1,4.1528258E-1,5.7636553E-1,1.7136994E-1,8.239664E-1,1.5E0,1.0908278E0,2.8650767E-1,4.9573714E-1,3.2003358E-1,8E0,3.517452E-1,6E0,5E-1,8.283407E-1,3.5E0,9.572408E-1,1.55E1,1.2E1,5.866087E-1,-5.1930905E-3,2.1582909E-1,1.45E1,1.1255183E0,-1.3467384E-2,7.022338E-2,-1.8587399E-1,-4.8253497E-1,7.288077E-1,1.35E1,3.3121127E-1,9.3233395E-1,9.442405E-1,2.335296E-1,-3.2981256E-1,1.2027402E-1,-2.7090815E-1,4.2419744E-1,6.157663E-1,-2.2556563E-1,-8.7497845E-2,2.3434532E-1,7.2942317E-1,-4.360726E-2],"split_indices":[11,11,20,0,15,20,20,2,0,20,8,20,5,0,0,20,14,5,14,2,10,0,12,14,6,3,20,0,0,2,0,0,0,0,0,8,2,0,0,0,0,0,0,0,0,0,0,0,0,0,0],"split_type":[0,0,0,0,0,0,0,0,0,0,0,0,0,0,0,0,0,0,0,0,0,0,0,0,0,0,0,0,0,0,0,0,0,0,0,0,0,0,0,0,0,0,0,0,0,0,0,0,0,0,0],"sum_hessian":[2.1E2,1.2E1,1.98E2,1E0,1.1E1,1.66E2,3.2E1,9E0,2E0,1.46E2,2E1,7E0,2.5E1,8E0,1E0,1.15E2,3.1E1,3E0,1.7E1,2E0,5E0,3E0,2.2E1,9.8E1,1.7E1,1.1E1,2E1,1E0,2E0,7E0,1E1,1E0,1E0,2E0,3E0,1.7E1,5E0,9.2E1,6E0,1.5E1,2E0,1E1,1E0,2E0,1.8E1,6E0,1E0,9E0,8E0,4E0,1E0],"tree_param":{"num_deleted":"0","num_feature":"22","num_nodes":"51","size_leaf_vector":"0"}},{"base_weights":[4.301656E0,4.9252176E0,3.231341E0,5.358472E0,2.3775249E0,2.4043424E0,6.930378E0,6.928799E0,4.495541E0,-8.5987675E-1,4.6849475E0,1.2255794E0,4.2798977E0,-1.020298E0,8.232043E0,8.186822E0,3.3111763E0,5.252831E0,2.6496813E0,2.878023E0,-3.8314805E0,8.168978E-1,7.883719E0,-6.85743E-1,2.7820668E0,6.8541145E0,1.3999738E0,-2.7545552E0,1.2241082E0,1.1246917E0,1.025178E1,8.880344E0,3.0818477E0,-8.176669E-1,4.7783093E0,6.3953743E0,2.548971E0,6.041254E0,-4.4664398E-1,2.1590519E-1,3.489576E0,-4.432069E0,-4.1426897E-1,-6.7998564E-1,3.0394042E0,-2.4886627E0,3.9347857E-1,2.4295422E-1,4.195133E0,2.3893626E0,9.069048E0,-2.1203671E-1,3.5846603E0,-7.794695E-1,3.4185877E0,4.0052395E0,9.898859E0,1.6760993E0,4.352421E0,5.894635E0,-2.07615E0,3.5513668E0,7.7322035E0,-1.8446008E-2,6.5861187E0,7.8663073E0,1.9129181E0,-1.7440473E0,4.891851E0,3.6787954E-1,-1.5011889E0,-5.7643396E-1,-3.0300002E0,-3.1429723E-1,3.0934222E0,3.090888E0,-2.1708164E0,7.287549E0,1.9177383E-1,5.4670496E0,6.804153E-1,1.0828426E1,1.9408156E0,-7.514403E-1,6.500778E-1,4.5292597E0,1.1303082E0,-1.5045261E-1,-1.0187516E0],"categories":[],"categories_nodes":[],"categories_segments":[],"categories_sizes":[],"default_left":[1,1,1,1,1,1,1,1,1,1,1,1,1,1,1,1,1,1,1,1,1,1,0,1,1,1,1,0,0,1,0,1,1,0,1,1,1,1,1,0,0,0,0,1,0,1,1,1,1,1,1,1,1,1,0,0,0,0,0,0,0,0,0,0,0,0,0,0,0,0,0,0,0,0,0,0,0,0,0,0,0,0,0,0,0,0,0,0,0],"id":13,"left_children":[1,3,5,7,9,11,13,15,17,19,21,23,25,27,29,31,33,35,37,39,41,43,-1,45,47,49,51,-1,-1,53,-1,55,57,-1,59,61,63,65,67,-1,-1,-1,-1,69,-1,71,73,75,77,79,81,83,85,87,-1,-1,-1,-1,-1,-1,-1,-1,-1,-1,-1,-1,-1,-1,-1,-1,-1,-1,-1,-1,-1,-1,-1,-1,-1,-1,-1,-1,-1,-1,-1,-1,-1,-1,-1],"loss_changes":[1.3291699E2,1.4068799E2,2.4336029E2,1.2875146E2,1.6836966E2,1.5172397E2,1.6363599E2,1.5493408E2,9.651184E1,1.2210265E2,1.544089E2,1.357805E2,1.9057022E2,1.5049007E1,1.750846E2,7.530408E1,7.659781E1,1.5360864E2,2.6523358E2,7.386715E0,1.0477959E1,2.5354584E1,0E0,4.183999E1,8.867914E1,1.16778564E2,5.0064404E1,0E0,0E0,2.0136475E1,0E0,8.448682E1,1.6354408E0,0E0,8.110445E1,1.17014404E2,1.8669223E2,7.53656E1,1.0549815E2,0E0,0E0,0E0,0E0,4.854809E0,0E0,6.534691E0,2.7725622E1,7.545234E1,1.9668326E2,2.7837765E1,9.1855286E1,4.6737437E0,8.79081E0,2.9826367E-1,0E0,0E0,0E0,0E0,0E0,0E0,0E0,0E0,0E0,0E0,0E0,0E0,0E0,0E0,0E0,0E0,0E0,0E0,0E0,0E0,0E0,0E0,0E0,0E0,0E0,0E0,0E0,0E0,0E0,0E0,0E0,0E0,0E0,0E0,0E0],"parents":[2147483647,0,0,1,1,2,2,3,3,4,4,5,5,6,6,7,7,8,8,9,9,10,10,11,11,12,12,13,13,14,14,15,15,16,16,17,17,18,18,19,19,20,20,21,21,23,23,24,24,25,25,26,26,29,29,31,31,32,32,34,34,35,35,36,36,37,37,38,38,43,43,45,45,46,46,47,47,48,48,49,49,50,50,51,51,52,52,53,53],"right_children":[2,4,6,8,10,12,14,16,18,20,22,24,26,28,30,32,34,36,38,40,42,44,-1,46,48,50,52,-1,-1,54,-1,56,58,-1,60,62,64,66,68,-1,-1,-1,-1,70,-1,72,74,76,78,80,82,84,86,88,-1,-1,-1,-1,-1,-1,-1,-1,-1,-1,-1,-1,-1,-1,-1,-1,-1,-1,-1,-1,-1,-1,-1,-1,-1,-1,-1,-1,-1,-1,-1,-1,-1,-1,-1],"split_conditions":[2.5E0,8.2368845E-1,8.239708E-1,2.8E1,2.65E1,9.5E0,2E0,1.25E1,6.6094804E-1,6.4390147E-1,4.4264826E-1,4.8814464E-1,8.5E0,6.05E1,5E-1,1.55E1,3.5E0,7.3076046E-1,5E-1,2.8214377E-1,1.25E1,6.5798295E-1,7.883719E-1,8E0,2.75E1,5.5418867E-1,1.25E1,-2.7545553E-1,1.2241083E-1,5.45E1,1.025178E0,5E-1,1E1,-8.176669E-2,1.5E1,7.5E0,9.160589E-1,5E-1,1.45E1,2.159052E-2,3.4895763E-1,-4.4320688E-1,-4.1426897E-2,3.3E1,3.0394042E-1,1.5E0,1.35E1,5E-1,7E0,1.8171848E-1,6.3333154E-1,5E-1,1.35E1,4.1E1,3.4185877E-1,4.0052396E-1,9.898859E-1,1.6760993E-1,4.352421E-1,5.8946353E-1,-2.07615E-1,3.551367E-1,7.7322036E-1,-1.8446008E-3,6.586119E-1,7.8663075E-1,1.9129181E-1,-1.7440473E-1,4.891851E-1,3.6787953E-2,-1.5011889E-1,-5.7643395E-2,-3.0300003E-1,-3.1429723E-2,3.0934224E-1,3.090888E-1,-2.1708165E-1,7.2875494E-1,1.9177383E-2,5.4670495E-1,6.8041526E-2,1.0828427E0,1.9408156E-1,-7.514403E-2,6.500778E-2,4.5292598E-1,1.1303081E-1,-1.5045262E-2,-1.0187516E-1],"split_indices":[18,20,14,0,0,5,6,2,17,14,14,20,4,0,7,4,6,8,13,8,2,8,0,3,0,8,4,0,0,0,0,15,2,0,5,5,8,19,4,0,0,0,0,0,0,9,6,21,6,17,14,13,2,0,0,0,0,0,0,0,0,0,0,0,0,0,0,0,0,0,0,0,0,0,0,0,0,0,0,0,0,0,0,0,0,0,0,0,0],"split_type":[0,0,0,0,0,0,0,0,0,0,0,0,0,0,0,0,0,0,0,0,0,0,0,0,0,0,0,0,0,0,0,0,0,0,0,0,0,0,0,0,0,0,0,0,0,0,0,0,0,0,0,0,0,0,0,0,0,0,0,0,0,0,0,0,0,0,0,0,0,0,0,0,0,0,0,0,0,0,0,0,0,0,0,0,0,0,0,0,0],"sum_hessian":[2.22E2,1.38E2,8.4E1,1.17E2,2.1E1,7E1,1.4E1,3.9E1,7.8E1,9E0,1.2E1,4.4E1,2.6E1,2E0,1.2E1,2.8E1,1.1E1,5.4E1,2.4E1,4E0,5E0,6E0,6E0,2E1,2.4E1,1.3E1,1.3E1,1E0,1E0,3E0,9E0,2.4E1,4E0,3E0,8E0,3.7E1,1.7E1,1.1E1,1.3E1,1E0,3E0,4E0,1E0,4E0,2E0,7E0,1.3E1,9E0,1.5E1,5E0,8E0,8E0,5E0,2E0,1E0,5E0,1.9E1,3E0,1E0,7E0,1E0,1.3E1,2.4E1,1.1E1,6E0,7E0,4E0,1.1E1,2E0,2E0,2E0,2E0,5E0,1.1E1,2E0,4E0,5E0,8E0,7E0,1E0,4E0,6E0,2E0,5E0,3E0,3E0,2E0,1E0,1E0],"tree_param":{"num_deleted":"0","num_feature":"22","num_nodes":"89","size_leaf_vector":"0"}},{"base_weights":[3.8840275E0,4.3333955E0,2.2883964E0,1.9949181E0,4.725432E0,1.6439993E0,8.01693E0,5.5210304E0,2.1965854E-1,7.374139E0,4.110589E0,5.726E0,6.844492E-1,6.823648E0,6.412466E-1,2.868765E0,-2.6075196E-1,9.850935E0,3.9490561E0,1.7299899E0,4.5791583E0,7.529689E0,-3.9127383E-1,4.0375867E0,9.006992E-2,1.2694077E0,-3.075378E-1,-5.20684E-1,1.9490805E0,1.0146984E1,2.8531194E0,1.6185563E0,8.788042E0,3.9020467E0,-7.967983E-1,2.9560535E0,5.4442916E0,7.137327E-1,-1.3006434E0,4.446712E0,9.9597955E-1,1.8092493E0,-1.6341133E0,5.595568E-1,-1.2247841E0,-1.7616094E0,2.6837988E0,2.0415886E-1,6.5142293E0,-2.1618466E0,7.010498E-1,5.907595E-1,5.5513377E0,5.6085677E0,-2.6168275E0,4.7700567E0,6.22586E-1,-2.3281505E0,5.082259E0],"categories":[],"categories_nodes":[],"categories_segments":[],"categories_sizes":[],"default_left":[1,1,1,1,1,1,0,1,1,1,1,1,1,0,1,0,1,1,1,1,1,0,1,1,1,0,0,1,0,0,0,1,0,1,1,1,1,0,0,0,0,1,1,0,0,0,0,0,0,0,0,0,0,0,0,0,0,0,0],"id":14,"left_children":[1,3,5,7,9,11,-1,13,15,17,19,21,23,-1,25,-1,27,29,31,33,35,-1,37,39,41,-1,-1,43,-1,-1,-1,45,-1,47,49,51,53,-1,-1,-1,-1,55,57,-1,-1,-1,-1,-1,-1,-1,-1,-1,-1,-1,-1,-1,-1,-1,-1],"loss_changes":[1.5284839E2,1.5192456E2,1.787756E2,1.678009E2,2.139685E2,1.840913E2,0E0,5.2832764E1,2.492855E1,1.9014539E2,1.3039697E2,1.02249115E2,7.935776E1,0E0,2.1783593E0,0E0,1.0779762E1,2.125E0,1.3238036E2,1.2385234E2,1.285393E2,0E0,3.94289E0,3.0375595E0,1.0670283E2,0E0,0E0,1.2854898E1,0E0,0E0,0E0,4.073477E1,0E0,1.1458478E2,2.4006548E1,2.2998767E2,1.0207703E2,0E0,0E0,0E0,0E0,6.02729E1,9.5737686E1,0E0,0E0,0E0,0E0,0E0,0E0,0E0,0E0,0E0,0E0,0E0,0E0,0E0,0E0,0E0,0E0],"parents":[2147483647,0,0,1,1,2,2,3,3,4,4,5,5,7,7,8,8,9,9,10,10,11,11,12,12,14,14,16,16,17,17,18,18,19,19,20,20,22,22,23,23,24,24,27,27,31,31,33,33,34,34,35,35,36,36,41,41,42,42],"right_children":[2,4,6,8,10,12,-1,14,16,18,20,22,24,-1,26,-1,28,30,32,34,36,-1,38,40,42,-1,-1,44,-1,-1,-1,46,-1,48,50,52,54,-1,-1,-1,-1,56,58,-1,-1,-1,-1,-1,-1,-1,-1,-1,-1,-1,-1,-1,-1,-1,-1],"split_conditions":[1.25E1,1.5812036E-1,9.353922E-1,6.5E0,3.048382E-1,3.690508E-1,8.0169296E-1,5.55E1,1.5E0,2.5E0,1.6580608E-1,8.568964E-1,1.5E0,6.823648E-1,6.05E1,2.8687653E-1,7.5053513E-1,2.9686797E-1,2.8711408E-1,6.81584E-1,4.9573714E-1,7.529689E-1,2.8E1,4E0,3.747095E-1,1.2694077E-1,-3.075378E-2,8E0,1.9490805E-1,1.0146984E0,2.8531194E-1,1.8351382E-1,8.788042E-1,9E0,9E0,1.05E1,9.776125E-1,7.137328E-2,-1.3006435E-1,4.446712E-1,9.959795E-2,6.235721E-1,1.55E1,5.595568E-2,-1.2247842E-1,-1.7616095E-1,2.683799E-1,2.0415885E-2,6.514229E-1,-2.1618466E-1,7.010498E-2,5.907595E-2,5.5513376E-1,5.6085676E-1,-2.6168275E-1,4.770057E-1,6.22586E-2,-2.3281506E-1,5.082259E-1],"split_indices":[3,20,14,2,20,17,0,0,5,9,17,8,5,0,0,0,17,20,20,20,20,0,0,1,14,0,0,6,0,0,0,20,0,5,4,4,14,0,0,0,0,17,2,0,0,0,0,0,0,0,0,0,0,0,0,0,0,0,0],"split_type":[0,0,0,0,0,0,0,0,0,0,0,0,0,0,0,0,0,0,0,0,0,0,0,0,0,0,0,0,0,0,0,0,0,0,0,0,0,0,0,0,0,0,0,0,0,0,0,0,0,0,0,0,0,0,0,0,0,0,0],"sum_hessian":[2.26E2,1.75E2,5.1E1,2.6E1,1.49E2,4.7E1,4E0,8E0,1.8E1,2.6E1,1.23E2,8E0,3.9E1,6E0,2E0,2E0,1.6E1,1.4E1,1.2E1,2.1E1,1.02E2,6E0,2E0,5E0,3.4E1,1E0,1E0,1.5E1,1E0,1.3E1,1E0,9E0,3E0,1.1E1,1E1,3.7E1,6.5E1,1E0,1E0,4E0,1E0,1.7E1,1.7E1,6E0,9E0,2E0,7E0,5E0,6E0,5E0,5E0,2E1,1.7E1,6.4E1,1E0,4E0,1.3E1,1.6E1,1E0],"tree_param":{"num_deleted":"0","num_feature":"22","num_nodes":"59","size_leaf_vector":"0"}},{"base_weights":[3.6154404E0,6.947485E0,3.3991637E0,7.754941E0,1.6709846E0,3.5161235E0,-1.2999449E0,1.4593267E0,8.23857E0,1.9488138E0,3.9629653E0,6.8944395E-3,-2.6090822E0,9.025944E0,3.3927162E0,3.1209831E0,-9.161691E-1,5.195038E0,3.182854E0,-2.683845E-1,4.1636562E-1,3.8557405E0,-3.688659E-1,-2.9521282E0,1.234311E0,3.666053E0,8.222603E0,6.2847137E0,2.7436674E0,2.139336E0,6.902975E0,-2.267312E0,1.6217968E0,-3.6326334E0,9.05705E-1,-8.277488E-1,2.6370966E0,5.293838E0,2.7459866E-1,8.686126E0,-2.92161E-1,8.900028E0,8.4326804E-1,2.0621312E0,4.6986184E0],"categories":[],"categories_nodes":[],"categories_segments":[],"categories_sizes":[],"default_left":[1,1,1,1,0,1,1,0,1,1,1,1,0,0,0,1,1,1,1,0,0,1,1,1,1,1,1,1,1,0,0,0,0,0,0,0,0,0,0,0,0,0,0,0,0],"id":15,"left_children":[1,3,5,7,-1,9,11,-1,13,15,17,19,-1,-1,-1,21,23,25,27,-1,-1,29,31,33,35,37,39,41,43,-1,-1,-1,-1,-1,-1,-1,-1,-1,-1,-1,-1,-1,-1,-1,-1],"loss_changes":[1.4141162E2,4.242865E1,1.2383545E2,2.1469421E1,0E0,1.4074902E2,1.0282982E1,0E0,7.5324707E0,1.6741336E2,1.41094E2,5.6262124E-1,0E0,0E0,0E0,9.1168945E1,6.9318184E1,2.5685986E2,1.2307324E2,0E0,0E0,1.3691055E2,3.0131283E1,2.4292305E1,2.5323877E1,2.359303E2,8.147351E1,1.6326794E2,1.12888916E2,0E0,0E0,0E0,0E0,0E0,0E0,0E0,0E0,0E0,0E0,0E0,0E0,0E0,0E0,0E0,0E0],"parents":[2147483647,0,0,1,1,2,2,3,3,5,5,6,6,8,8,9,9,10,10,11,11,15,15,16,16,17,17,18,18,21,21,22,22,23,23,24,24,25,25,26,26,27,27,28,28],"right_children":[2,4,6,8,-1,10,12,-1,14,16,18,20,-1,-1,-1,22,24,26,28,-1,-1,30,32,34,36,38,40,42,44,-1,-1,-1,-1,-1,-1,-1,-1,-1,-1,-1,-1,-1,-1,-1,-1],"split_conditions":[5.7933304E-2,3E0,9.765605E-1,5E-1,1.6709846E-1,3.5E0,1.15E1,1.4593267E-1,1.35E1,2.5E0,8.5E0,3.5E0,-2.6090822E-1,9.025944E-1,3.3927163E-1,1.4E1,5E-1,6.5357745E-1,5E-1,-2.683845E-2,4.1636564E-2,1.5E0,6.515273E-1,4.5E0,2.60027E-1,7.09594E-1,6.1E1,4.5E0,8.1801736E-1,2.1393362E-1,6.9029754E-1,-2.2673121E-1,1.621797E-1,-3.6326334E-1,9.05705E-2,-8.277488E-2,2.6370966E-1,5.2938384E-1,2.7459865E-2,8.686126E-1,-2.92161E-2,8.9000285E-1,8.43268E-2,2.0621312E-1,4.6986184E-1],"split_indices":[11,21,8,12,0,4,3,0,3,18,4,1,0,0,0,2,13,8,5,0,0,18,8,1,17,17,0,1,14,0,0,0,0,0,0,0,0,0,0,0,0,0,0,0,0],"split_type":[0,0,0,0,0,0,0,0,0,0,0,0,0,0,0,0,0,0,0,0,0,0,0,0,0,0,0,0,0,0,0,0,0,0,0,0,0,0,0,0,0,0,0,0,0],"sum_hessian":[2.28E2,1.2E1,2.16E2,1E1,2E0,2.11E2,5E0,1E0,9E0,4.8E1,1.63E2,3E0,2E0,7E0,2E0,3.4E1,1.4E1,6.1E1,1.02E2,2E0,1E0,2.8E1,6E0,7E0,7E0,4.2E1,1.9E1,1.1E1,9.1E1,1.9E1,9E0,3E0,3E0,6E0,1E0,3E0,4E0,2.8E1,1.4E1,1.8E1,1E0,7E0,4E0,6.9E1,2.2E1],"tree_param":{"num_deleted":"0","num_feature":"22","num_nodes":"45","size_leaf_vector":"0"}},{"base_weights":[3.0979578E0,2.2892487E0,3.7862139E0,3.27116E0,9.6519923E-1,4.8072762E0,2.4506624E0,4.556838E0,1.1724683E0,-3.877058E-1,2.4654145E0,6.9091773E0,3.3366401E0,2.7345035E0,-3.0022984E0,-2.3420603E0,5.0459247E0,3.1412094E0,-1.2608135E0,-1.912824E0,2.9016337E0,-3.099919E0,3.2143927E0,-6.836374E-1,7.2540298E0,1.3533148E0,4.8076954E0,4.1663866E0,1.6033295E0,5.9445734E0,1.4945757E0,-8.191654E-1,5.718839E0,2.2712069E0,-1.8411362E0,-2.3421829E0,2.4784584E0,-2.422971E0,4.00843E0,-2.249598E0,3.9895444E0,2.648603E0,8.042685E0,2.078501E0,-1.7044625E0,1.739862E0,6.7977448E0,6.7464185E-1,5.2153916E0,-1.6599657E-1,3.510893E0,7.213382E0,2.1880827E0,3.7430208E0,-6.0309535E-1,-1.2412301E0,1.6642729E-2,6.444551E0,2.3611362E0,-1.9987792E0,-2.111749E-1,-1.3874806E0,-3.7021065E0,1.6163632E0,4.6419845E0,5.0091357E0,5.4069847E-1,-3.982831E0,5.3021693E0,1.5898209E0,8.298635E0,-1.7662444E0,2.8058653E0,-4.908123E-1,-1.9454086E0,3.4204612E0,-3.3216894E0,8.160875E0,1.6904802E0,-4.6937037E-1,3.1973515E0,6.1439433E0,8.9374995E-1,2.420724E0,-1.2299637E0,7.0222184E-2,4.8801394E0],"categories":[],"categories_nodes":[],"categories_segments":[],"categories_sizes":[],"default_left":[1,1,1,1,1,1,1,1,1,1,1,1,1,1,0,0,1,1,1,1,1,0,1,0,1,1,1,1,1,1,1,1,1,0,1,1,0,0,1,0,1,1,1,1,1,1,1,1,1,1,1,0,0,0,0,0,0,0,0,0,0,0,0,0,0,0,0,0,0,0,0,0,0,0,0,0,0,0,0,0,0,0,0,0,0,0,0],"id":16,"left_children":[1,3,5,7,9,11,13,15,17,19,21,23,25,27,-1,-1,29,31,33,35,37,-1,39,-1,41,43,45,47,49,51,53,55,57,-1,59,61,-1,-1,63,-1,65,67,69,71,73,75,77,79,81,83,85,-1,-1,-1,-1,-1,-1,-1,-1,-1,-1,-1,-1,-1,-1,-1,-1,-1,-1,-1,-1,-1,-1,-1,-1,-1,-1,-1,-1,-1,-1,-1,-1,-1,-1,-1,-1],"loss_changes":[1.0933142E2,1.268526E2,1.4231494E2,1.4845703E2,9.026041E1,1.7168787E2,8.714633E1,1.2991345E2,1.1414201E2,1.2594947E2,9.749894E1,7.041907E1,1.0727933E2,7.268564E1,0E0,0E0,9.643207E1,1.373936E2,2.672843E1,3.785741E1,5.6858337E1,0E0,8.9447876E1,0E0,6.5868286E1,4.3456978E1,1.2248593E2,7.340146E1,9.846075E1,1.08139465E2,3.998938E1,2.1372485E0,4.2773438E0,0E0,2.1474304E0,1.5636551E1,0E0,0E0,3.1054E0,0E0,5.7070587E1,1.091024E2,1.9838867E1,4.69038E1,2.1486664E-1,9.642609E1,7.670856E1,1.8816807E1,5.8714752E1,4.701237E1,6.561307E1,0E0,0E0,0E0,0E0,0E0,0E0,0E0,0E0,0E0,0E0,0E0,0E0,0E0,0E0,0E0,0E0,0E0,0E0,0E0,0E0,0E0,0E0,0E0,0E0,0E0,0E0,0E0,0E0,0E0,0E0,0E0,0E0,0E0,0E0,0E0,0E0],"parents":[2147483647,0,0,1,1,2,2,3,3,4,4,5,5,6,6,7,7,8,8,9,9,10,10,11,11,12,12,13,13,16,16,17,17,18,18,19,19,20,20,22,22,24,24,25,25,26,26,27,27,28,28,29,29,30,30,31,31,32,32,34,34,35,35,38,38,40,40,41,41,42,42,43,43,44,44,45,45,46,46,47,47,48,48,49,49,50,50],"right_children":[2,4,6,8,10,12,14,16,18,20,22,24,26,28,-1,-1,30,32,34,36,38,-1,40,-1,42,44,46,48,50,52,54,56,58,-1,60,62,-1,-1,64,-1,66,68,70,72,74,76,78,80,82,84,86,-1,-1,-1,-1,-1,-1,-1,-1,-1,-1,-1,-1,-1,-1,-1,-1,-1,-1,-1,-1,-1,-1,-1,-1,-1,-1,-1,-1,-1,-1,-1,-1,-1,-1,-1,-1],"split_conditions":[5E-1,5E-1,3.5E0,2.5E0,5E-1,6.5E0,1.55E1,3.579174E-2,5.746557E-1,4.95E1,1.5368237E-1,1.7783567E-2,3.3966094E-1,4.118122E-1,-3.0022985E-1,-2.3420604E-1,5.95E1,2.60027E-1,1.5E0,4.5E0,2.0914453E-1,-3.0999193E-1,5E-1,-6.836374E-2,3.5E0,8.536841E-1,1.05E1,5.5E0,7.806711E-1,1.2E1,6.5E0,1.05E1,1.55E1,2.2712068E-1,9.6213317E-1,9E0,2.4784584E-1,-2.422971E-1,4.8792195E-1,-2.249598E-1,1.35E1,4.5E0,2.4016174E-2,8E0,2.75E1,7.751874E-1,3.5E0,1.2E1,7.263514E-1,1.4E1,5.5E0,7.213382E-1,2.1880828E-1,3.743021E-1,-6.0309537E-2,-1.24123015E-1,1.6642729E-3,6.4445513E-1,2.3611362E-1,-1.9987792E-1,-2.1117492E-2,-1.3874806E-1,-3.7021065E-1,1.6163632E-1,4.6419844E-1,5.0091356E-1,5.4069847E-2,-3.982831E-1,5.3021693E-1,1.5898208E-1,8.298635E-1,-1.7662445E-1,2.8058654E-1,-4.9081232E-2,-1.9454086E-1,3.420461E-1,-3.3216894E-1,8.1608754E-1,1.6904803E-1,-4.6937037E-2,3.1973514E-1,6.1439437E-1,8.9375E-2,2.4207239E-1,-1.2299637E-1,7.0222183E-3,4.8801395E-1],"split_indices":[7,10,1,18,19,6,5,8,17,0,17,8,20,8,0,0,0,17,4,1,11,0,5,0,4,8,6,4,8,5,5,5,6,0,8,2,0,0,11,0,6,2,17,6,0,20,21,2,17,0,2,0,0,0,0,0,0,0,0,0,0,0,0,0,0,0,0,0,0,0,0,0,0,0,0,0,0,0,0,0,0,0,0,0,0,0,0],"split_type":[0,0,0,0,0,0,0,0,0,0,0,0,0,0,0,0,0,0,0,0,0,0,0,0,0,0,0,0,0,0,0,0,0,0,0,0,0,0,0,0,0,0,0,0,0,0,0,0,0,0,0,0,0,0,0,0,0,0,0,0,0,0,0,0,0,0,0,0,0,0,0,0,0,0,0,0,0,0,0,0,0,0,0,0,0,0,0],"sum_hessian":[2.11E2,9.9E1,1.12E2,5.6E1,4.3E1,6.2E1,5E1,3.4E1,2.2E1,2.3E1,2E1,2.4E1,3.8E1,4.8E1,2E0,2E0,3.2E1,1.2E1,1E1,1.6E1,7E0,2E0,1.8E1,1E0,2.3E1,1.7E1,2.1E1,2E1,2.8E1,2.5E1,7E0,5E0,7E0,1E0,9E0,1.5E1,1E0,1E0,6E0,2E0,1.6E1,4E0,1.9E1,1.4E1,3E0,9E0,1.2E1,5E0,1.5E1,1.5E1,1.3E1,1.8E1,7E0,3E0,4E0,3E0,2E0,5E0,2E0,8E0,1E0,1E1,5E0,2E0,4E0,1.2E1,4E0,1E0,3E0,1E0,1.8E1,2E0,1.2E1,1E0,2E0,7E0,2E0,9E0,3E0,4E0,1E0,1.2E1,3E0,4E0,1.1E1,4E0,9E0],"tree_param":{"num_deleted":"0","num_feature":"22","num_nodes":"87","size_leaf_vector":"0"}},{"base_weights":[2.8739157E0,6.102439E0,2.6978254E0,7.447425E0,2.9989705E0,3.296452E0,1.9584814E0,7.991004E-1,3.3491628E0,3.6239533E0,1.5955434E0,2.2968218E0,-1.3162656E0,8.430727E0,3.3859217E0,-1.1667978E0,3.3851993E0,-8.885975E-1,2.6572776E0,-2.3312836E0,7.8908205E-1,4.464874E0,2.4640536E0,-1.5434637E0,9.23265E-1,-1.1211631E0,4.849224E0,-2.225075E0,1.6723877E0,1.18183345E-1,3.1782944E0,-2.529513E0,-5.7095337E-1,-5.745127E-1,1.4351178E0,-7.211612E-1,5.166225E0,1.6627176E0,5.1301703E0,-1.693878E0,-2.452817E-1,1.5493803E0,-2.5278044E0,9.332434E-2,6.0265336E0,-2.429685E0,-4.987073E-1,2.1641634E0,-2.5292459E0,4.0628586E0,1.4943297E0],"categories":[],"categories_nodes":[],"categories_segments":[],"categories_sizes":[],"default_left":[1,1,1,0,1,1,1,0,0,1,1,1,1,0,1,1,1,1,1,1,1,1,1,1,0,1,1,1,0,1,1,0,0,0,0,0,0,0,0,0,0,0,0,0,0,0,0,0,0,0,0],"id":17,"left_children":[1,3,5,-1,7,9,11,-1,-1,13,15,17,19,-1,21,23,25,27,29,31,33,35,37,39,-1,41,43,45,-1,47,49,-1,-1,-1,-1,-1,-1,-1,-1,-1,-1,-1,-1,-1,-1,-1,-1,-1,-1,-1,-1],"loss_changes":[1.1315723E2,2.3580719E1,9.002881E1,0E0,1.1755714E0,6.0506714E1,1.138212E2,0E0,0E0,8.4726685E1,1.0776627E2,1.0684769E2,2.3209227E1,0E0,8.448486E1,8.5103245E0,9.120334E1,3.7948185E1,1.0810309E2,9.984093E-1,4.3482175E0,1.6012659E2,1.0683859E2,1.1466446E0,0E0,1.8942516E1,5.5429214E1,1.2609215E0,0E0,8.672251E1,9.521985E1,0E0,0E0,0E0,0E0,0E0,0E0,0E0,0E0,0E0,0E0,0E0,0E0,0E0,0E0,0E0,0E0,0E0,0E0,0E0,0E0],"parents":[2147483647,0,0,1,1,2,2,4,4,5,5,6,6,9,9,10,10,11,11,12,12,14,14,15,15,16,16,17,17,18,18,19,19,20,20,21,21,22,22,23,23,25,25,26,26,27,27,29,29,30,30],"right_children":[2,4,6,-1,8,10,12,-1,-1,14,16,18,20,-1,22,24,26,28,30,32,34,36,38,40,-1,42,44,46,-1,48,50,-1,-1,-1,-1,-1,-1,-1,-1,-1,-1,-1,-1,-1,-1,-1,-1,-1,-1,-1,-1],"split_conditions":[5.7933304E-2,3.5E0,8.5E0,7.447425E-1,3.5E0,8.773476E-1,9.238129E-1,7.991004E-2,3.349163E-1,4.957129E-2,3.7324202E-1,1.25E1,4.3279147E-1,8.430727E-1,4.6039438E-1,8.991465E-1,3.1E1,3.5E0,3.5E0,1.4E1,1.35E1,1.5E0,9.125162E-1,1.5E1,9.23265E-2,1.35E1,1.8265456E-1,1.35E1,1.6723877E-1,2.5E0,6.382599E-1,-2.529513E-1,-5.7095338E-2,-5.7451274E-2,1.4351179E-1,-7.211612E-2,5.166225E-1,1.6627176E-1,5.1301706E-1,-1.693878E-1,-2.452817E-2,1.5493803E-1,-2.5278044E-1,9.332434E-3,6.026534E-1,-2.4296851E-1,-4.987073E-2,2.1641634E-1,-2.529246E-1,4.0628585E-1,1.4943297E-1],"split_indices":[11,1,3,0,3,11,8,0,0,17,8,0,11,0,8,14,0,15,4,2,0,1,8,4,0,0,17,3,0,15,17,0,0,0,0,0,0,0,0,0,0,0,0,0,0,0,0,0,0,0,0],"split_type":[0,0,0,0,0,0,0,0,0,0,0,0,0,0,0,0,0,0,0,0,0,0,0,0,0,0,0,0,0,0,0,0,0,0,0,0,0,0,0,0,0,0,0,0,0,0,0,0,0,0,0],"sum_hessian":[2.27E2,1E1,2.17E2,6E0,4E0,1.18E2,9.9E1,1E0,3E0,9.8E1,2E1,9E1,9E0,3E0,9.5E1,8E0,1.2E1,9E0,8.1E1,6E0,3E0,4.2E1,5.3E1,7E0,1E0,3E0,9E0,6E0,3E0,1.4E1,6.7E1,5E0,1E0,1E0,2E0,5E0,3.7E1,4.2E1,1.1E1,6E0,1E0,1E0,2E0,2E0,7E0,5E0,1E0,8E0,6E0,4.3E1,2.4E1],"tree_param":{"num_deleted":"0","num_feature":"22","num_nodes":"51","size_leaf_vector":"0"}},{"base_weights":[2.7441385E0,8.5233945E-1,3.0716758E0,2.472638E0,7.4188486E-2,5.196616E0,2.7290223E0,4.2827234E0,-5.560095E-1,-5.9273744E-1,1.7785425E0,6.841867E0,2.044553E0,2.1026003E0,3.7522821E0,4.836058E0,4.8135805E-1,-1.5499415E0,1.7098594E0,-1.1398553E0,1.6071389E0,-7.7438956E-1,2.9545932E0,7.2845926E0,1.00491524E-1,4.106399E0,-1.4410973E-2,2.5696301E0,-4.3864876E-1,6.7134743E0,2.8900828E0,3.7041602E-1,-1.4006983E0,3.8616397E0,1.0626825E0,8.233882E0,4.488344E0,5.2914195E0,1.5525789E0,-1.1655512E0,4.489273E-1,1.1659776E0,3.8849876E0,-3.3437803E0,7.1245176E-1,7.682707E0,9.2179614E-1,3.888125E0,7.8270155E-1,-3.4176135E-1,-1.6842033E0,4.235755E0,9.3422575E0,5.0947485E0,7.2816133E-1,1.3373153E-1,6.144807E-1,-2.933067E-1,3.738057E0,2.0191445E0,5.743862E0,-3.705673E0,-9.4810486E-1,-1.6076316E0,2.3634577E0,8.7046194E-1,8.276885E0,1.1355972E-1,1.2691345E0,1.0192665E0,5.478936E0,4.906261E0,-1.9125363E0],"categories":[],"categories_nodes":[],"categories_segments":[],"categories_sizes":[],"default_left":[1,1,1,1,1,1,1,1,1,1,1,1,1,1,1,0,0,0,0,1,0,0,1,1,0,1,1,1,1,1,1,0,1,0,0,1,1,0,0,0,1,1,1,1,1,1,1,1,1,0,0,0,0,0,0,0,0,0,0,0,0,0,0,0,0,0,0,0,0,0,0,0,0],"id":18,"left_children":[1,3,5,7,9,11,13,15,17,19,21,23,25,27,29,-1,-1,-1,-1,31,-1,-1,33,35,-1,37,39,41,43,45,47,-1,49,-1,-1,51,53,-1,-1,-1,55,57,59,61,63,65,67,69,71,-1,-1,-1,-1,-1,-1,-1,-1,-1,-1,-1,-1,-1,-1,-1,-1,-1,-1,-1,-1,-1,-1,-1,-1],"loss_changes":[1.3432129E2,4.268501E1,1.2270459E2,6.2684456E1,2.8334478E1,1.1565979E2,9.7233154E1,1.2396103E1,1.391078E1,2.3496555E1,2.330465E1,4.702124E1,4.2511845E1,1.2455847E2,1.3633899E2,0E0,0E0,0E0,0E0,6.4279976E0,0E0,0E0,4.4765587E0,2.8602905E0,0E0,6.9163055E0,3.7234516E0,1.57945E2,5.9231956E1,6.589343E1,1.000163E2,0E0,3.3271847E0,0E0,0E0,4.742737E0,9.971352E0,0E0,0E0,0E0,1.7873323E-1,1.6624579E2,1.4447888E2,8.2151794E-1,5.35957E1,3.7319824E1,6.9807196E-1,1.450213E2,1.9832094E2,0E0,0E0,0E0,0E0,0E0,0E0,0E0,0E0,0E0,0E0,0E0,0E0,0E0,0E0,0E0,0E0,0E0,0E0,0E0,0E0,0E0,0E0,0E0,0E0],"parents":[2147483647,0,0,1,1,2,2,3,3,4,4,5,5,6,6,7,7,8,8,9,9,10,10,11,11,12,12,13,13,14,14,19,19,22,22,23,23,25,25,26,26,27,27,28,28,29,29,30,30,32,32,35,35,36,36,40,40,41,41,42,42,43,43,44,44,45,45,46,46,47,47,48,48],"right_children":[2,4,6,8,10,12,14,16,18,20,22,24,26,28,30,-1,-1,-1,-1,32,-1,-1,34,36,-1,38,40,42,44,46,48,-1,50,-1,-1,52,54,-1,-1,-1,56,58,60,62,64,66,68,70,72,-1,-1,-1,-1,-1,-1,-1,-1,-1,-1,-1,-1,-1,-1,-1,-1,-1,-1,-1,-1,-1,-1,-1,-1],"split_conditions":[1.5812036E-1,6.5E0,3.0239525E-1,8.1420675E-2,3.5E0,2.5E0,7.061962E-1,1.4E1,5E-1,1.2E1,4.829743E-1,1.55E1,5E-1,6.580781E-1,7.538464E-1,4.8360583E-1,4.8135806E-2,-1.5499416E-1,1.7098594E-1,3.5E0,1.607139E-1,-7.743896E-2,1.2E1,2.7402627E-1,1.0049152E-2,5.5E0,1E0,4.5592058E-1,3.5E0,3.5E0,9.5E0,3.70416E-2,1.5598786E-1,3.8616398E-1,1.0626825E-1,1.3813013E-1,1.55E1,5.2914196E-1,1.552579E-1,-1.1655512E-1,1E0,9.5E0,4.9573714E-1,1.35E1,6E0,8.415213E-2,1.35E1,5.5E0,4.5E0,-3.4176137E-2,-1.6842033E-1,4.235755E-1,9.3422574E-1,5.094749E-1,7.281613E-2,1.3373153E-2,6.1448067E-2,-2.933067E-2,3.738057E-1,2.0191446E-1,5.7438624E-1,-3.705673E-1,-9.4810486E-2,-1.6076316E-1,2.3634577E-1,8.70462E-2,8.276885E-1,1.1355973E-2,1.2691346E-1,1.0192665E-1,5.4789364E-1,4.906261E-1,-1.9125363E-1],"split_indices":[20,2,20,20,12,9,20,4,7,3,11,3,13,20,20,0,0,0,0,6,0,0,4,20,0,4,4,11,5,12,4,0,17,0,0,11,5,0,0,0,3,4,20,2,3,14,2,6,5,0,0,0,0,0,0,0,0,0,0,0,0,0,0,0,0,0,0,0,0,0,0,0,0],"split_type":[0,0,0,0,0,0,0,0,0,0,0,0,0,0,0,0,0,0,0,0,0,0,0,0,0,0,0,0,0,0,0,0,0,0,0,0,0,0,0,0,0,0,0,0,0,0,0,0,0,0,0,0,0,0,0,0,0,0,0,0,0,0,0,0,0,0,0,0,0,0,0,0,0],"sum_hessian":[2.2E2,3.3E1,1.87E2,1E1,2.3E1,2.4E1,1.63E2,6E0,4E0,1.7E1,6E0,1.5E1,9E0,1.03E2,6E1,5E0,1E0,3E0,1E0,1.4E1,3E0,2E0,4E0,1.4E1,1E0,4E0,5E0,8.7E1,1.6E1,1.2E1,4.8E1,2E0,1.2E1,2E0,2E0,9E0,5E0,2E0,2E0,1E0,4E0,4.3E1,4.4E1,4E0,1.2E1,1E1,2E0,3.2E1,1.6E1,3E0,9E0,3E0,6E0,4E0,1E0,2E0,2E0,2.8E1,1.5E1,2.3E1,2.1E1,3E0,1E0,5E0,7E0,1E0,9E0,1E0,1E0,1.2E1,2E1,6E0,1E1],"tree_param":{"num_deleted":"0","num_feature":"22","num_nodes":"73","size_leaf_vector":"0"}},{"base_weights":[2.107482E0,5.1936054E0,1.8896301E0,5.823139E0,9.442679E-1,1.6592104E0,4.0943727E0,6.787539E0,2.197455E0,2.2918896E-1,2.0634787E0,-2.2332718E0,4.97017E0,7.207973E0,1.7120342E0,2.7588959E0,-7.266132E-1,2.822353E0,1.077872E0,-2.402028E0,5.5810595E0,4.4929833E0,2.7597776E-1,-2.1439764E0,6.501177E-1,6.1399193E0,2.3358934E0,5.7161856E-1,2.624188E0,7.8747563E0,3.4173656E0,-1.0081943E0,1.1701124E0,-5.428875E-1,-2.6324322E0,2.447443E0,-2.2671247E0,1.9100246E0,6.95864E0,4.348241E0,1.5100564E0,3.0745107E-1,4.6958146E0,7.8301096E0,8.2050544E-1,4.421984E0,-4.0073934E-1],"categories":[],"categories_nodes":[],"categories_segments":[],"categories_sizes":[],"default_left":[1,1,1,1,0,1,1,1,0,1,1,0,1,0,0,1,1,1,1,0,1,0,1,1,1,1,1,1,1,0,1,0,0,0,0,0,0,0,0,0,0,0,0,0,0,0,0],"id":19,"left_children":[1,3,5,7,-1,9,11,13,-1,15,17,-1,19,-1,-1,21,23,25,27,-1,29,-1,31,33,35,37,39,41,43,-1,45,-1,-1,-1,-1,-1,-1,-1,-1,-1,-1,-1,-1,-1,-1,-1,-1],"loss_changes":[1.3876825E2,3.195282E1,9.88739E1,2.7044037E1,0E0,1.0936841E2,1.163927E2,6.864929E0,0E0,1.0597432E2,1.0765466E2,0E0,8.996701E1,0E0,0E0,5.04272E1,6.3836334E1,1.196084E2,5.016661E1,0E0,5.2494812E1,0E0,8.0690365E0,1.1083862E1,9.4683624E1,2.1339844E1,1.1641232E2,5.4119667E1,1.4381264E2,0E0,4.0129463E1,0E0,0E0,0E0,0E0,0E0,0E0,0E0,0E0,0E0,0E0,0E0,0E0,0E0,0E0,0E0,0E0],"parents":[2147483647,0,0,1,1,2,2,3,3,5,5,6,6,7,7,9,9,10,10,12,12,15,15,16,16,17,17,18,18,20,20,22,22,23,23,24,24,25,25,26,26,27,27,28,28,30,30],"right_children":[2,4,6,8,-1,10,12,14,-1,16,18,-1,20,-1,-1,22,24,26,28,-1,30,-1,32,34,36,38,40,42,44,-1,46,-1,-1,-1,-1,-1,-1,-1,-1,-1,-1,-1,-1,-1,-1,-1,-1],"split_conditions":[5.994582E-2,3.5E0,9.0739465E-1,3.5E0,9.4426796E-2,4.5E0,2.0327693E-1,1.35E1,2.197455E-1,5E-1,5E-1,-2.2332719E-1,1.5E0,7.207973E-1,1.7120342E-1,2.5E0,5E-1,1.5E0,1.15E1,-2.4020281E-1,6.7352664E-1,4.4929835E-1,1.5E0,2.5E0,6.3526833E-1,8.5E0,3.5E0,9.208795E-1,4.8853004E-1,7.8747565E-1,1.45E1,-1.0081943E-1,1.1701124E-1,-5.4288752E-2,-2.6324323E-1,2.447443E-1,-2.2671247E-1,1.9100247E-1,6.95864E-1,4.3482408E-1,1.5100564E-1,3.0745108E-2,4.6958145E-1,7.8301096E-1,8.205055E-2,4.4219843E-1,-4.0073935E-2],"split_indices":[11,21,14,15,0,2,11,3,0,12,19,0,6,0,0,18,19,3,3,0,11,0,2,3,20,2,6,8,17,0,4,0,0,0,0,0,0,0,0,0,0,0,0,0,0,0,0],"split_type":[0,0,0,0,0,0,0,0,0,0,0,0,0,0,0,0,0,0,0,0,0,0,0,0,0,0,0,0,0,0,0,0,0,0,0,0,0,0,0,0,0,0,0,0,0,0,0],"sum_hessian":[2.2E2,1.3E1,2.07E2,1.1E1,2E0,1.89E2,1.8E1,8E0,3E0,4.2E1,1.47E2,2E0,1.6E1,7E0,1E0,1.1E1,3.1E1,8.2E1,6.5E1,1E0,1.5E1,6E0,5E0,1.5E1,1.6E1,9E0,7.3E1,5E1,1.5E1,6E0,9E0,2E0,3E0,4E0,1.1E1,1E1,6E0,2E0,7E0,2E1,5.3E1,4.8E1,2E0,3E0,1.2E1,7E0,2E0],"tree_param":{"num_deleted":"0","num_feature":"22","num_nodes":"47","size_leaf_vector":"0"}},{"base_weights":[2.513271E0,2.2885404E0,5.1231885E0,3.0858095E0,1.3821093E0,6.2057576E0,1.5003843E0,9.608763E-1,3.6118665E0,1.7621503E0,-3.2040563E-1,6.8231497E0,-2.9277706E-1,-5.0560236E-1,2.1282816E0,-2.1139434E-1,4.9888754E0,4.708398E0,1.8930889E0,2.0443482E0,-1.351879E0,-1.8025974E0,1.7576587E0,7.1177144E0,1.9387503E0,9.1545445E-1,-1.4399602E0,1.1808496E0,5.6456695E0,5.0091214E0,-2.2063255E-3,8.553956E-1,6.593092E0,3.933398E0,1.593467E0,2.1000938E0,-2.2772236E0,-3.0183043E0,-2.8645766E-1,-1.1356044E0,2.3332112E0,-5.38953E-1,1.9748849E0,-2.5294232E0,-6.2505245E-2,5.677434E0,2.5867584E0,4.3440533E-1,-6.5602064E-1,3.1590693E0,-9.565546E-1,4.1863823E-1,7.744255E0,2.9094902E-1,6.17356E0,2.575291E0,2.4825633E-1,-4.3564367E-1,-2.5584106E0,-3.280649E0,-8.532901E-1,1.3022771E0,-1.4063942E0,5.773916E-1,2.5296159E0],"categories":[],"categories_nodes":[],"categories_segments":[],"categories_sizes":[],"default_left":[1,1,1,1,1,1,1,1,1,1,1,1,0,0,0,1,1,1,1,1,1,1,1,0,0,1,1,0,0,1,1,1,1,1,1,0,1,1,1,0,1,0,0,0,0,0,0,0,0,0,0,0,0,0,0,0,0,0,0,0,0,0,0,0,0],"id":20,"left_children":[1,3,5,7,9,11,13,15,17,19,21,23,-1,-1,-1,25,27,29,31,33,35,37,39,-1,-1,41,43,-1,-1,45,47,49,51,53,55,-1,57,59,61,-1,63,-1,-1,-1,-1,-1,-1,-1,-1,-1,-1,-1,-1,-1,-1,-1,-1,-1,-1,-1,-1,-1,-1,-1,-1],"loss_changes":[1.12619385E2,1.3810095E2,5.3439972E1,1.12784424E2,6.1384995E1,5.014337E1,7.373831E0,1.0493653E2,1.4751611E2,7.0429214E1,5.860997E1,2.0270386E0,0E0,0E0,0E0,2.6237562E1,5.8387527E0,7.0840576E1,1.6018382E2,5.4205597E1,2.7142231E1,1.9410378E1,1.5971399E1,0E0,0E0,1.6472805E1,1.3348076E1,0E0,0E0,6.1401855E1,1.4268306E0,1.24071945E2,3.9404785E1,1.0427959E2,7.728551E1,0E0,1.9924183E0,6.0853577E-1,1.2507209E1,0E0,9.533806E-1,0E0,0E0,0E0,0E0,0E0,0E0,0E0,0E0,0E0,0E0,0E0,0E0,0E0,0E0,0E0,0E0,0E0,0E0,0E0,0E0,0E0,0E0,0E0,0E0],"parents":[2147483647,0,0,1,1,2,2,3,3,4,4,5,5,6,6,7,7,8,8,9,9,10,10,11,11,15,15,16,16,17,17,18,18,19,19,20,20,21,21,22,22,25,25,26,26,29,29,30,30,31,31,32,32,33,33,34,34,36,36,37,37,38,38,40,40],"right_children":[2,4,6,8,10,12,14,16,18,20,22,24,-1,-1,-1,26,28,30,32,34,36,38,40,-1,-1,42,44,-1,-1,46,48,50,52,54,56,-1,58,60,62,-1,64,-1,-1,-1,-1,-1,-1,-1,-1,-1,-1,-1,-1,-1,-1,-1,-1,-1,-1,-1,-1,-1,-1,-1,-1],"split_conditions":[9.110347E-1,8.5E0,3.5E0,5E-1,5.65E1,5.85E1,1.5E0,6.5E0,1.15E1,9.260172E-1,6.174884E-1,8.2692754E-1,-2.9277707E-2,-5.0560236E-2,2.1282816E-1,5.3722274E-1,1.25E1,6.15E1,8.0472076E-1,1.5E0,1.45E1,5.956917E-1,5E-1,7.117714E-1,1.9387503E-1,2.9620832E-1,9.5E0,1.1808496E-1,5.6456697E-1,6.640384E-1,6.3E1,4.3977934E-1,5E0,2.45E1,5.210346E-1,2.1000938E-1,3.1E1,1.3E1,5.5E0,-1.1356044E-1,3.5E0,-5.3895302E-2,1.9748849E-1,-2.5294232E-1,-6.2505244E-3,5.677434E-1,2.5867584E-1,4.3440532E-2,-6.5602064E-2,3.1590694E-1,-9.565546E-2,4.1863825E-2,7.744255E-1,2.9094903E-2,6.17356E-1,2.575291E-1,2.4825633E-2,-4.3564368E-2,-2.5584108E-1,-3.280649E-1,-8.532901E-2,1.3022771E-1,-1.4063942E-1,5.7739165E-2,2.529616E-1],"split_indices":[17,3,9,21,0,0,12,3,4,11,11,11,0,0,0,17,0,0,17,6,3,8,9,0,0,17,4,0,0,17,0,11,2,0,17,0,0,3,4,0,2,0,0,0,0,0,0,0,0,0,0,0,0,0,0,0,0,0,0,0,0,0,0,0,0],"split_type":[0,0,0,0,0,0,0,0,0,0,0,0,0,0,0,0,0,0,0,0,0,0,0,0,0,0,0,0,0,0,0,0,0,0,0,0,0,0,0,0,0,0,0,0,0,0,0,0,0,0,0,0,0,0,0,0,0,0,0,0,0,0,0,0,0],"sum_hessian":[2.11E2,1.96E2,1.5E1,1.03E2,9.3E1,1.1E1,4E0,2.1E1,8.2E1,7.6E1,1.7E1,1E1,1E0,1E0,3E0,1.7E1,4E0,4.9E1,3.3E1,7E1,6E0,1E1,7E0,9E0,1E0,9E0,8E0,1E0,3E0,4.6E1,3E0,2.8E1,5E0,1.2E1,5.8E1,1E0,5E0,5E0,5E0,1E0,6E0,4E0,5E0,4E0,4E0,3.5E1,1.1E1,2E0,1E0,1.2E1,1.6E1,1E0,4E0,5E0,7E0,3.3E1,2.5E1,1E0,4E0,4E0,1E0,2E0,3E0,1E0,5E0],"tree_param":{"num_deleted":"0","num_feature":"22","num_nodes":"65","size_leaf_vector":"0"}},{"base_weights":[1.8413242E0,3.7426763E0,1.4888054E0,4.3844132E0,-8.9788474E-2,6.4595634E-1,2.0031796E0,9.1539556E-1,5.041601E0,-1.6272988E0,1.9901549E0,2.1575477E0,-2.4926265E-1,4.425772E0,1.5603653E0,-1.5790442E0,2.5573764E0,5.81747E0,2.215442E0,-1.9530294E0,-3.250537E-1,3.442587E0,-4.997818E-1,4.0256414E0,-1.0773108E0,5.827162E-1,5.8590465E0,-1.4866494E0,1.9039868E0,-4.8377466E-1,-1.8847916E0,2.905166E0,7.57004E-1,-4.8032236E-1,6.194032E0,2.7032218E0,6.639945E-1,-5.874808E-1,4.234942E0,9.225122E-1,-2.8638506E0,6.0268574E0,5.177119E-1,5.5712247E-1,-2.0416808E0,-8.742151E-1,1.5297357E0,2.2378604E0,6.314002E0,3.3301022E0,-2.9270499E0,-6.631923E-1,2.5289524E0,2.259716E0,6.8302474E0,-1.6560745E0,1.3091502E0,5.3423486E0,7.3017836E-1,-8.8983774E-1,1.3728768E0,-3.9318085E-2,-3.7922556E0,-1.1408997E0,1.4508823E0,3.1025884E0,-1.280416E0,-1.0204054E0,-2.4388916E0,4.939653E-1,2.3185234E0,1.6743293E0,6.6105366E0,-3.7495728E0,-3.2146614E-2,1.2490758E0,-1.6418604E0,4.6816926E0,1.8172579E0],"categories":[],"categories_nodes":[],"categories_segments":[],"categories_sizes":[],"default_left":[1,1,1,1,1,1,1,1,1,1,0,1,1,1,1,1,1,1,1,0,0,1,1,1,1,1,1,1,1,0,0,0,0,0,1,0,0,1,1,1,1,0,1,1,1,0,1,0,1,0,1,1,1,0,0,0,0,0,0,0,0,0,0,0,0,0,0,0,0,0,0,0,0,0,0,0,0,0,0],"id":21,"left_children":[1,3,5,7,9,11,13,15,17,19,-1,21,23,25,27,29,31,33,35,-1,-1,37,39,41,43,45,47,49,51,-1,-1,-1,-1,-1,53,-1,-1,55,57,59,61,-1,63,65,67,-1,69,-1,71,-1,73,75,77,-1,-1,-1,-1,-1,-1,-1,-1,-1,-1,-1,-1,-1,-1,-1,-1,-1,-1,-1,-1,-1,-1,-1,-1,-1,-1],"loss_changes":[1.4724768E2,8.647388E1,8.2812744E1,6.377887E1,2.2426184E1,1.0202819E2,1.21825195E2,2.8613144E1,4.1929993E1,1.0618849E0,0E0,9.733418E1,1.7424854E2,9.5732605E1,1.10673584E2,9.2813015E-2,3.0538177E-1,4.8033813E1,3.5024338E0,0E0,0E0,6.3159576E1,3.6265945E1,5.3040802E1,6.57616E1,9.615772E0,7.2873535E0,8.606595E1,1.5088626E2,0E0,0E0,0E0,0E0,0E0,2.962091E1,0E0,0E0,1.0274963E1,5.8198303E1,6.935166E0,1.03401375E1,0E0,7.8463793E0,7.8810875E1,8.058556E0,0E0,2.1227417E0,0E0,4.0658264E0,0E0,2.1309586E1,3.760885E1,1.0639914E2,0E0,0E0,0E0,0E0,0E0,0E0,0E0,0E0,0E0,0E0,0E0,0E0,0E0,0E0,0E0,0E0,0E0,0E0,0E0,0E0,0E0,0E0,0E0,0E0,0E0,0E0],"parents":[2147483647,0,0,1,1,2,2,3,3,4,4,5,5,6,6,7,7,8,8,9,9,11,11,12,12,13,13,14,14,15,15,16,16,17,17,18,18,21,21,22,22,23,23,24,24,25,25,26,26,27,27,28,28,34,34,37,37,38,38,39,39,40,40,42,42,43,43,44,44,46,46,48,48,50,50,51,51,52,52],"right_children":[2,4,6,8,10,12,14,16,18,20,-1,22,24,26,28,30,32,34,36,-1,-1,38,40,42,44,46,48,50,52,-1,-1,-1,-1,-1,54,-1,-1,56,58,60,62,-1,64,66,68,-1,70,-1,72,-1,74,76,78,-1,-1,-1,-1,-1,-1,-1,-1,-1,-1,-1,-1,-1,-1,-1,-1,-1,-1,-1,-1,-1,-1,-1,-1,-1,-1],"split_conditions":[1.7635697E-1,8.2349634E-1,4.577282E-1,5E-1,2.95E1,7.5E0,5.8177257E-1,6.5E0,1.4E1,1.85E1,1.9901548E-1,1.05E1,8.447698E-2,2.55E1,6.2873447E-1,3.25E1,2.3E1,5E-1,5E-1,-1.9530295E-1,-3.250537E-2,5E-1,1.2E1,1.45E1,4.5E0,5E-1,1.2675196E-1,3.4125757E-1,2.3545328E-1,-4.8377465E-2,-1.8847917E-1,2.905166E-1,7.57004E-2,-4.8032235E-2,5E-1,2.7032217E-1,6.639945E-2,5.65E1,2.5E0,1.2E1,3E0,6.0268575E-1,2E0,2.5E0,3.5E0,-8.7421514E-2,1.8E1,2.2378604E-1,1.5E0,3.3301023E-1,1.3E1,7.647516E-2,5E-1,2.2597161E-1,6.8302476E-1,-1.6560745E-1,1.3091503E-1,5.342349E-1,7.3017836E-2,-8.8983774E-2,1.3728768E-1,-3.9318088E-3,-3.7922558E-1,-1.14089966E-1,1.4508824E-1,3.1025884E-1,-1.2804161E-1,-1.02040544E-1,-2.4388917E-1,4.939653E-2,2.3185234E-1,1.6743293E-1,6.6105366E-1,-3.749573E-1,-3.2146615E-3,1.24907576E-1,-1.6418605E-1,4.6816927E-1,1.8172579E-1],"split_indices":[11,20,11,21,0,2,11,3,4,0,0,3,8,0,11,0,0,5,7,0,0,21,6,3,6,7,20,17,20,0,0,0,0,0,18,0,0,0,18,0,1,0,1,9,3,0,0,0,4,0,4,20,18,0,0,0,0,0,0,0,0,0,0,0,0,0,0,0,0,0,0,0,0,0,0,0,0,0,0],"split_type":[0,0,0,0,0,0,0,0,0,0,0,0,0,0,0,0,0,0,0,0,0,0,0,0,0,0,0,0,0,0,0,0,0,0,0,0,0,0,0,0,0,0,0,0,0,0,0,0,0,0,0,0,0,0,0,0,0,0,0,0,0,0,0,0,0,0,0,0,0,0,0,0,0,0,0,0,0,0,0],"sum_hessian":[2.27E2,3.4E1,1.93E2,2.9E1,5E0,7.4E1,1.19E2,5E0,2.4E1,3E0,2E0,2.7E1,4.7E1,1.7E1,1.02E2,2E0,3E0,1.8E1,6E0,2E0,1E0,1.8E1,9E0,7E0,4E1,5E0,1.2E1,1E1,9.2E1,1E0,1E0,2E0,1E0,1E0,1.7E1,4E0,2E0,3E0,1.5E1,6E0,3E0,4E0,3E0,1.5E1,2.5E1,2E0,3E0,2E0,1E1,2E0,8E0,1.8E1,7.4E1,3E0,1.4E1,2E0,1E0,1.1E1,4E0,1E0,5E0,1E0,2E0,1E0,2E0,6E0,9E0,8E0,1.7E1,2E0,1E0,1E0,9E0,6E0,2E0,6E0,1.2E1,1.7E1,5.7E1],"tree_param":{"num_deleted":"0","num_feature":"22","num_nodes":"79","size_leaf_vector":"0"}},{"base_weights":[1.7704713E0,1.4938561E0,3.1120515E0,1.3507231E0,5.443447E0,4.129278E0,7.3349136E-1,1.4886547E0,-2.1920035E0,5.9566884E0,1.9842315E0,-9.501268E-1,3.2805822E0,2.4284933E0,8.982947E-1,-3.445595E0,2.664773E0,6.917783E0,3.0353808E0,-1.7800131E0,2.4462528E0,1.4305372E0,-1.4945842E0,1.9031982E0,6.509052E0,1.4192394E0,-7.591982E-1,-4.043867E0,-2.2711802E-1,1.1800861E-1,3.7352219E0,3.5765398E0,7.19876E-1,-1.9295484E0,5.576005E-1,3.0481064E0,5.2676016E-1,1.320446E0,7.153745E0,5.9493595E-1,2.4856114E0,-2.6658318E0,1.0654757E0,-4.5383015E0,-1.0330648E0,4.7590327E0,4.135386E-1,1.8055165E0,-9.676034E-1],"categories":[],"categories_nodes":[],"categories_segments":[],"categories_sizes":[],"default_left":[1,1,1,1,0,1,1,1,1,1,1,1,0,1,1,1,0,0,1,0,1,0,1,1,1,1,1,1,0,0,0,1,1,0,0,0,0,0,0,0,0,0,0,0,0,0,0,0,0],"id":22,"left_children":[1,3,5,7,-1,9,11,13,15,17,19,21,-1,23,25,27,-1,-1,29,-1,31,-1,33,35,37,39,41,43,-1,-1,-1,45,47,-1,-1,-1,-1,-1,-1,-1,-1,-1,-1,-1,-1,-1,-1,-1,-1],"loss_changes":[7.550897E1,9.496976E1,8.407449E1,8.9266205E1,0E0,8.617755E1,5.4576912E1,9.2141815E1,5.180063E1,1.5501373E1,2.6963463E1,1.250742E1,0E0,1.269393E2,9.260447E1,1.0634705E1,0E0,0E0,9.767693E0,0E0,2.084095E1,0E0,7.3243046E0,9.137222E1,1.3969269E1,6.972136E1,9.3293976E1,2.75486E0,0E0,0E0,0E0,2.4213547E1,1.2738999E1,0E0,0E0,0E0,0E0,0E0,0E0,0E0,0E0,0E0,0E0,0E0,0E0,0E0,0E0,0E0,0E0],"parents":[2147483647,0,0,1,1,2,2,3,3,5,5,6,6,7,7,8,8,9,9,10,10,11,11,13,13,14,14,15,15,18,18,20,20,22,22,23,23,24,24,25,25,26,26,27,27,31,31,32,32],"right_children":[2,4,6,8,-1,10,12,14,16,18,20,22,-1,24,26,28,-1,-1,30,-1,32,-1,34,36,38,40,42,44,-1,-1,-1,46,48,-1,-1,-1,-1,-1,-1,-1,-1,-1,-1,-1,-1,-1,-1,-1,-1],"split_conditions":[3.5E0,9.6836704E-1,8.5E0,9.2818487E-1,5.443447E-1,3.5E0,2.5E0,6.5E0,1E1,4E1,1.1E1,1.65E1,3.280582E-1,8.5641974E-1,2.5E0,5.5E1,2.6647732E-1,6.917783E-1,4.8E1,-1.7800131E-1,8.1502557E-1,1.4305373E-1,1.55E1,5E-1,1.5E0,9.5E0,5.2154887E-1,8.881613E-1,-2.2711802E-2,1.1800862E-2,3.735222E-1,8.6772645E-1,3.75E1,-1.9295484E-1,5.5760052E-2,3.0481064E-1,5.267602E-2,1.320446E-1,7.153745E-1,5.9493598E-2,2.4856114E-1,-2.6658317E-1,1.0654757E-1,-4.5383015E-1,-1.0330649E-1,4.7590327E-1,4.1353863E-2,1.8055165E-1,-9.676034E-2],"split_indices":[9,17,3,17,0,1,12,5,6,0,0,0,0,14,9,0,0,0,0,0,11,0,3,16,15,3,11,11,0,0,0,17,0,0,0,0,0,0,0,0,0,0,0,0,0,0,0,0,0],"split_type":[0,0,0,0,0,0,0,0,0,0,0,0,0,0,0,0,0,0,0,0,0,0,0,0,0,0,0,0,0,0,0,0,0,0,0,0,0,0,0,0,0,0,0,0,0,0,0,0,0],"sum_hessian":[2.15E2,1.8E2,3.5E1,1.75E2,5E0,2.4E1,1.1E1,1.69E2,6E0,1.2E1,1.2E1,7E0,4E0,6.4E1,1.05E2,5E0,1E0,8E0,4E0,1E0,1.1E1,1E0,6E0,5.8E1,6E0,8E1,2.5E1,4E0,1E0,1E0,3E0,6E0,5E0,5E0,1E0,3.1E1,2.7E1,1E0,5E0,4.6E1,3.4E1,1.2E1,1.3E1,3E0,1E0,4E0,2E0,3E0,2E0],"tree_param":{"num_deleted":"0","num_feature":"22","num_nodes":"49","size_leaf_vector":"0"}},{"base_weights":[1.5597907E0,3.0361927E0,1.2066314E0,3.275448E0,-3.386639E0,4.4995564E-1,1.9925883E0,3.8567803E0,3.9535576E-1,2.9716061E-2,2.819185E0,2.2176971E0,-2.1877575E0,4.2273107E0,-1.3811367E0,-3.7168891E0,1.5138035E0,8.5260457E-1,-1.1086802E0,1.2961807E0,4.633827E0,2.6182756E0,3.5159668E-1,-1.8321309E0,4.4818773E0,-4.3697548E-1,-1.6347295E0,1.7907524E-1,2.0118797E0,4.3376517E0,3.344406E-1,-2.1451435E0,1.2534829E0,3.0401254E-1,2.460388E0,6.1128187E0,1.1172295E0,2.0355732E0,4.156178E0,-3.3663044E0,8.2387704E-1,1.6323211E0,5.2449846E0,3.7715054E-1,-1.08537674E-1,9.2531186E-1,5.812494E0,-1.0785418E-1,4.5632043E0,-2.6619961E0,1.1046195E0,2.7877958E0,-1.1452515E0,-2.7829635E-1,9.790869E-1,3.5799167E0,1.0379235E0,4.81731E0,6.3788843E-1,-4.091784E-1,1.6913782E0],"categories":[],"categories_nodes":[],"categories_segments":[],"categories_sizes":[],"default_left":[1,1,1,1,0,1,1,1,1,1,1,1,0,1,1,0,1,1,1,1,1,1,1,0,1,0,0,1,0,1,1,1,1,1,0,0,0,1,1,0,1,0,0,0,0,0,0,0,0,0,0,0,0,0,0,0,0,0,0,0,0],"id":23,"left_children":[1,3,5,7,-1,9,11,13,15,17,19,21,-1,23,25,-1,27,29,31,33,35,37,39,-1,41,-1,-1,43,-1,45,47,49,51,53,-1,-1,-1,55,57,-1,59,-1,-1,-1,-1,-1,-1,-1,-1,-1,-1,-1,-1,-1,-1,-1,-1,-1,-1,-1,-1],"loss_changes":[1.1156702E2,7.563403E1,1.0615207E2,6.7121124E1,0E0,9.251111E1,8.766266E1,7.182593E1,4.2421288E1,7.588713E1,3.2685623E1,6.1871094E1,0E0,5.7572388E1,3.9610863E-3,0E0,4.2932987E0,8.342314E1,8.593094E1,9.647816E0,2.4376694E1,5.3373413E1,3.0867687E1,0E0,5.884857E1,0E0,0E0,2.1184206E-1,0E0,2.4817596E1,7.904728E1,4.3252068E1,4.367723E1,2.6310868E0,0E0,0E0,0E0,7.640144E1,3.879605E1,0E0,1.6737232E1,0E0,0E0,0E0,0E0,0E0,0E0,0E0,0E0,0E0,0E0,0E0,0E0,0E0,0E0,0E0,0E0,0E0,0E0,0E0,0E0],"parents":[2147483647,0,0,1,1,2,2,3,3,5,5,6,6,7,7,8,8,9,9,10,10,11,11,13,13,14,14,16,16,17,17,18,18,19,19,20,20,21,21,22,22,24,24,27,27,29,29,30,30,31,31,32,32,33,33,37,37,38,38,40,40],"right_children":[2,4,6,8,-1,10,12,14,16,18,20,22,-1,24,26,-1,28,30,32,34,36,38,40,-1,42,-1,-1,44,-1,46,48,50,52,54,-1,-1,-1,56,58,-1,60,-1,-1,-1,-1,-1,-1,-1,-1,-1,-1,-1,-1,-1,-1,-1,-1,-1,-1,-1,-1],"split_conditions":[2.0835245E-1,8.887347E-1,4.9704343E-1,1.25E1,-3.386639E-1,1.35E1,9.705351E-1,1.45E1,5E-1,5.557682E-1,8.5E0,1.35E1,-2.1877575E-1,2.1297295E-2,6.25E1,-3.7168893E-1,2.95E1,1.5E0,3.5087073E-1,6.232457E-1,1.5E0,7.5224906E-1,6.1695125E-2,-1.832131E-1,1.65E1,-4.3697547E-2,-1.6347295E-1,2.5E1,2.0118797E-1,2.05E1,4.9941188E-1,8.8166785E-1,7E0,5E0,2.460388E-1,6.112819E-1,1.11722946E-1,8.5E0,5.85E1,-3.3663043E-1,1.45E1,1.6323212E-1,5.2449846E-1,3.7715055E-2,-1.0853767E-2,9.253119E-2,5.812494E-1,-1.0785419E-2,4.5632043E-1,-2.6619962E-1,1.1046195E-1,2.787796E-1,-1.14525154E-1,-2.7829636E-2,9.790869E-2,3.5799167E-1,1.0379235E-1,4.81731E-1,6.3788846E-2,-4.091784E-2,1.6913782E-1],"split_indices":[11,14,14,3,0,6,8,2,9,20,2,5,0,14,0,0,0,6,14,20,9,17,17,0,0,0,0,0,0,0,20,8,4,2,0,0,0,4,0,0,5,0,0,0,0,0,0,0,0,0,0,0,0,0,0,0,0,0,0,0,0],"split_type":[0,0,0,0,0,0,0,0,0,0,0,0,0,0,0,0,0,0,0,0,0,0,0,0,0,0,0,0,0,0,0,0,0,0,0,0,0,0,0,0,0,0,0,0,0,0,0,0,0,0,0,0,0,0,0,0,0,0,0,0,0],"sum_hessian":[2.2E2,4.1E1,1.79E2,4E1,1E0,9.2E1,8.7E1,3.3E1,7E0,7.9E1,1.3E1,8.3E1,4E0,3.1E1,2E0,1E0,6E0,4.6E1,3.3E1,8E0,5E0,6.8E1,1.5E1,1E0,3E1,1E0,1E0,2E0,4E0,5E0,4.1E1,2.3E1,1E1,5E0,3E0,3E0,2E0,5.1E1,1.7E1,1E0,1.4E1,7E0,2.3E1,1E0,1E0,2E0,3E0,3.8E1,3E0,2E1,3E0,6E0,4E0,3E0,2E0,1.9E1,3.2E1,1.4E1,3E0,6E0,8E0],"tree_param":{"num_deleted":"0","num_feature":"22","num_nodes":"61","size_leaf_vector":"0"}},{"base_weights":[1.1886575E0,2.4716616E0,9.0406966E-1,3.065336E0,-1.3044361E0,7.4707013E-1,4.186175E0,3.7386076E0,7.797358E-1,-2.0617428E0,1.2410488E0,1.1644028E0,-2.7408653E-1,1.2959528E0,4.9335904E0,6.4291334E0,2.6099932E0,2.8309283E0,-7.176819E-1,-5.5626154E-1,-2.2990477E0,3.0722623E0,6.9487256E-1,-6.619E-1,3.4261775E0,7.458648E0,1.2602282E-1,7.576142E-1,3.781778E0,1.0704827E-1,-1.5780948E0,-2.649662E0,3.4362442E0,-8.631914E-2,1.7757163E0,6.6393024E-1,-1.4353348E0,5.85282E-1,5.125014E0,2.0576298E0,-1.3818129E0,4.1479836E0,-1.2324047E-1,4.2464447E-1,-1.4036529E-1,-4.3557405E-1,-1.9315681E0,2.264893E0,5.3494163E0,1.8443388E0,-6.1849433E-1,2.3561685E0,-2.0996923E0,-9.056196E-1,1.7450638E0,2.3710725E0,-1.7919022E0,1.0171123E0,-1.3918924E-1],"categories":[],"categories_nodes":[],"categories_segments":[],"categories_sizes":[],"default_left":[1,1,1,1,1,1,1,1,1,1,0,1,1,0,0,1,1,0,1,0,0,1,1,1,1,0,0,1,1,1,1,0,1,1,1,1,1,1,0,0,0,0,0,0,0,0,0,0,0,0,0,0,0,0,0,0,0,0,0],"id":24,"left_children":[1,3,5,7,9,11,13,15,17,19,-1,21,23,-1,-1,25,27,-1,29,-1,-1,31,33,35,37,-1,-1,39,41,43,45,-1,47,49,51,53,55,57,-1,-1,-1,-1,-1,-1,-1,-1,-1,-1,-1,-1,-1,-1,-1,-1,-1,-1,-1,-1,-1],"loss_changes":[7.736322E1,9.142764E1,8.962463E1,4.940509E1,1.4125E1,7.404519E1,1.0887863E1,6.2170715E1,2.9675135E1,5.074196E-1,0E0,1.0804831E2,7.545342E1,0E0,0E0,4.448404E1,4.0546677E1,0E0,4.4265833E0,0E0,0E0,5.908914E1,8.458788E1,4.9148796E1,2.11315E1,0E0,0E0,2.7874859E1,1.7671661E1,3.7391576E-1,3.7021112E-1,0E0,3.9427063E1,6.176016E1,9.94258E1,3.212444E1,4.496595E1,1.0801167E0,0E0,0E0,0E0,0E0,0E0,0E0,0E0,0E0,0E0,0E0,0E0,0E0,0E0,0E0,0E0,0E0,0E0,0E0,0E0,0E0,0E0],"parents":[2147483647,0,0,1,1,2,2,3,3,4,4,5,5,6,6,7,7,8,8,9,9,11,11,12,12,15,15,16,16,18,18,21,21,22,22,23,23,24,24,27,27,28,28,29,29,30,30,32,32,33,33,34,34,35,35,36,36,37,37],"right_children":[2,4,6,8,10,12,14,16,18,20,-1,22,24,-1,-1,26,28,-1,30,-1,-1,32,34,36,38,-1,-1,40,42,44,46,-1,48,50,52,54,56,58,-1,-1,-1,-1,-1,-1,-1,-1,-1,-1,-1,-1,-1,-1,-1,-1,-1,-1,-1,-1,-1],"split_conditions":[1.6094403E-1,8.9478123E-1,9.612812E-1,6.868613E-1,1.3732363E-1,7.1052164E-1,5.842006E-1,2.2095166E-1,4.9217634E-2,3.8E1,1.2410488E-1,1.504201E-1,1.55E1,1.2959528E-1,4.9335906E-1,4.15E1,5.117334E-1,2.8309283E-1,9.5E0,-5.5626154E-2,-2.2990477E-1,8.5E0,1.15E1,3.3958405E-1,4.154393E-1,7.458648E-1,1.2602282E-2,5E0,1.55E1,2.5E0,3.2E1,-2.6496622E-1,4.6078855E-1,2.5E0,5.95E1,7.760062E-1,1.3981882E-1,1.95E1,5.125014E-1,2.0576298E-1,-1.381813E-1,4.1479835E-1,-1.2324047E-2,4.2464446E-2,-1.4036529E-2,-4.3557405E-2,-1.9315682E-1,2.264893E-1,5.349416E-1,1.8443388E-1,-6.1849434E-2,2.3561685E-1,-2.0996924E-1,-9.056196E-2,1.7450638E-1,2.3710726E-1,-1.7919022E-1,1.0171123E-1,-1.3918924E-2],"split_indices":[8,11,17,20,8,17,8,14,8,0,0,14,4,0,0,0,14,0,4,0,0,0,2,20,8,0,0,4,2,1,0,0,17,4,0,17,11,0,0,0,0,0,0,0,0,0,0,0,0,0,0,0,0,0,0,0,0,0,0],"split_type":[0,0,0,0,0,0,0,0,0,0,0,0,0,0,0,0,0,0,0,0,0,0,0,0,0,0,0,0,0,0,0,0,0,0,0,0,0,0,0,0,0,0,0,0,0,0,0,0,0,0,0,0,0,0,0,0,0,0,0],"sum_hessian":[2.17E2,3.8E1,1.79E2,3.3E1,5E0,1.72E2,7E0,2.5E1,8E0,4E0,1E0,1.22E2,5E1,2E0,5E0,6E0,1.9E1,3E0,5E0,1E0,3E0,2.3E1,9.9E1,4.6E1,4E0,5E0,1E0,8E0,1.1E1,3E0,2E0,1E0,2.2E1,5.8E1,4.1E1,1.7E1,2.9E1,2E0,2E0,5E0,3E0,1E1,1E0,1E0,2E0,1E0,1E0,1.5E1,7E0,1.2E1,4.6E1,3.6E1,5E0,7E0,1E1,2E0,2.7E1,1E0,1E0],"tree_param":{"num_deleted":"0","num_feature":"22","num_nodes":"59","size_leaf_vector":"0"}},{"base_weights":[1.3559506E0,1.2266744E0,3.6066647E0,1.8377566E0,6.5590405E-1,4.706588E0,5.05152E-1,2.6584737E0,6.99711E-1,3.3796074E0,2.3883145E-1,1.209556E0,-8.0402994E-1,4.0963564E0,9.6236473E-1,-2.073359E0,1.2194827E0,1.5798613E0,5.515959E0,8.2501996E-1,-8.026433E-1,2.1559904E0,5.2701564E0,3.75347E0,-9.0025425E-1,-3.1339586E0,3.8542685E-1,7.358859E-1,3.5148187E0,1.715411E0,2.4773216E-1,-1.1707878E-1,6.6659822E0,9.450275E-1,-3.1277118E0,-2.9839845E0,1.0199884E-1,5.1232368E-2,4.6030025E0,6.5322323E0,2.8760324E0,5.321632E0,8.0734956E-1,5.892976E-1,-3.1123707E0,-3.4645407E0,-9.058151E-1,7.3171616E-2,5.0496864E-1,2.2492177E0,-2.0890741E-1,1.8748758E0,4.529803E0,6.42039E-1,1.9661951E0,1.3476806E0,-4.4547752E-1,-3.633595E0,1.4312553E0,1.7022086E0,-7.51171E-1],"categories":[],"categories_nodes":[],"categories_segments":[],"categories_sizes":[],"default_left":[1,1,1,1,1,0,1,1,1,1,1,0,0,1,1,1,1,1,1,1,1,1,1,1,1,1,1,1,1,1,0,0,0,1,0,1,1,0,0,0,0,0,0,0,0,0,0,0,0,0,0,0,0,0,0,0,0,0,0,0,0],"id":25,"left_children":[1,3,5,7,9,-1,11,13,15,17,19,-1,-1,21,23,25,27,29,31,33,35,37,39,41,43,45,47,49,51,53,-1,-1,-1,55,-1,57,59,-1,-1,-1,-1,-1,-1,-1,-1,-1,-1,-1,-1,-1,-1,-1,-1,-1,-1,-1,-1,-1,-1,-1,-1],"loss_changes":[5.726013E1,6.9249695E1,3.5148148E1,8.873917E1,1.1960694E2,0E0,4.6612906E0,1.3263092E2,6.3065674E1,4.5114014E1,5.7438747E1,0E0,0E0,5.6965607E1,1.4374576E2,1.9462425E1,3.7374107E1,1.2001648E0,3.96492E1,3.1417221E1,6.739769E1,6.671896E1,3.560132E1,4.65235E1,5.7850166E1,5.446892E-1,7.503325E-2,4.4793236E1,1.494278E0,8.9110374E-1,0E0,0E0,0E0,3.3633938E1,0E0,3.388246E1,3.540992E1,0E0,0E0,0E0,0E0,0E0,0E0,0E0,0E0,0E0,0E0,0E0,0E0,0E0,0E0,0E0,0E0,0E0,0E0,0E0,0E0,0E0,0E0,0E0,0E0],"parents":[2147483647,0,0,1,1,2,2,3,3,4,4,6,6,7,7,8,8,9,9,10,10,13,13,14,14,15,15,16,16,17,17,18,18,19,19,20,20,21,21,22,22,23,23,24,24,25,25,26,26,27,27,28,28,29,29,33,33,35,35,36,36],"right_children":[2,4,6,8,10,-1,12,14,16,18,20,-1,-1,22,24,26,28,30,32,34,36,38,40,42,44,46,48,50,52,54,-1,-1,-1,56,-1,58,60,-1,-1,-1,-1,-1,-1,-1,-1,-1,-1,-1,-1,-1,-1,-1,-1,-1,-1,-1,-1,-1,-1,-1,-1],"split_conditions":[9.6111995E-1,3.75E1,3.5E0,5E-1,1.5E0,4.7065878E-1,4.5E0,9.5E0,5E-1,1.1E1,5.779775E-1,1.209556E-1,-8.040299E-2,1.5E0,5.5E0,3.05E1,8.430339E-1,1.55E1,4E1,9.4661605E-1,3.295104E-1,2.7E1,1.2E1,7.5575763E-1,7.231268E-1,2.75E1,3.5E0,4.5E0,1.35E1,9E0,2.4773216E-2,-1.1707879E-2,6.6659826E-1,6.05E1,-3.1277117E-1,1.35E1,5.964128E-1,5.1232367E-3,4.6030027E-1,6.532232E-1,2.8760323E-1,5.321632E-1,8.073496E-2,5.892976E-2,-3.1123707E-1,-3.4645408E-1,-9.0581514E-2,7.3171617E-3,5.0496865E-2,2.2492178E-1,-2.089074E-2,1.8748759E-1,4.5298028E-1,6.42039E-2,1.9661951E-1,1.3476805E-1,-4.454775E-2,-3.633595E-1,1.4312553E-1,1.7022087E-1,-7.5117104E-2],"split_indices":[17,0,9,19,5,0,1,4,5,6,20,0,0,9,6,0,14,4,0,17,11,0,5,14,14,0,1,4,4,2,0,0,0,0,0,6,11,0,0,0,0,0,0,0,0,0,0,0,0,0,0,0,0,0,0,0,0,0,0,0,0],"split_type":[0,0,0,0,0,0,0,0,0,0,0,0,0,0,0,0,0,0,0,0,0,0,0,0,0,0,0,0,0,0,0,0,0,0,0,0,0,0,0,0,0,0,0,0,0,0,0,0,0,0,0,0,0,0,0,0,0,0,0,0,0],"sum_hessian":[2.11E2,2.01E2,1E1,9.6E1,1.05E2,7E0,3E0,5.5E1,4.1E1,1.3E1,9.2E1,2E0,1E0,2.9E1,2.6E1,6E0,3.5E1,8E0,5E0,5.9E1,3.3E1,1.2E1,1.7E1,1E1,1.6E1,4E0,2E0,3E1,5E0,7E0,1E0,1E0,4E0,5.8E1,1E0,9E0,2.4E1,7E0,5E0,1E1,7E0,6E0,4E0,1E1,6E0,3E0,1E0,1E0,1E0,1.1E1,1.9E1,3E0,2E0,2E0,5E0,4.5E1,1.3E1,8E0,1E0,8E0,1.6E1],"tree_param":{"num_deleted":"0","num_feature":"22","num_nodes":"61","size_leaf_vector":"0"}},{"base_weights":[1.1548911E0,1.5154692E0,3.8401973E-1,1.0792342E0,2.7426639E0,2.6255646E0,3.3258703E-2,2.7090964E0,7.719943E-1,4.272566E-1,4.268466E0,1.2748799E0,5.352202E0,1.9516276E0,-4.3791214E-1,5.2492847E0,1.0015619E0,4.0476155E0,5.5469936E-1,1.3300736E0,-1.0524925E0,5.3182536E-1,4.5839868E0,2.0151663E-1,1.3994294E0,-3.7875947E-1,3.4554644E0,1.5246053E0,-1.181498E0,5.9123564E0,6.354265E-1,-1.5778543E0,3.8439538E0,5.608176E0,6.176627E-1,1.8971095E0,-4.3552037E-2,-1.5160317E0,1.7662873E0,-1.9687557E-1,-1.6449863E0,3.505087E-2,7.626872E-1,1.1672083E0,4.8673043E0,-1.0664462E0,2.3169541E-1,4.0438566E0,1.1268587E0,3.1935692E0,-2.4520366E0,-2.3736553E0,-4.661761E-2,6.875889E0,2.6568613E0,-7.0152283E-3,-2.2047868E0,1.3132582E0,-3.8676405E-1,2.7370627E0,-2.7357113E-1,-6.398453E-1,2.2169547E0,2.2457893E0,-1.0114702E-1,3.1739378E-1,-4.7409663E-1,-4.1069984E-1,2.1615124E0,9.448762E-1,5.024018E0,3.660253E-1,-8.5647106E-2,4.6943293E0,-6.0634345E-1,-3.388105E0,6.4611816E-1,3.690917E-1,-3.1296608E0,-1.1763172E0,2.3808267E0],"categories":[],"categories_nodes":[],"categories_segments":[],"categories_sizes":[],"default_left":[1,1,1,1,1,1,1,1,1,1,1,1,0,1,1,1,1,1,1,1,1,1,1,0,0,1,1,1,1,1,0,1,0,0,1,1,1,0,1,1,0,0,0,1,1,0,1,0,0,1,1,1,1,0,0,0,0,0,0,0,0,0,0,0,0,0,0,0,0,0,0,0,0,0,0,0,0,0,0,0,0],"id":26,"left_children":[1,3,5,7,9,11,13,15,17,19,21,23,-1,25,27,29,31,33,35,37,39,41,43,-1,-1,45,47,49,51,53,-1,55,-1,-1,57,59,61,-1,63,65,-1,-1,-1,67,69,-1,71,-1,-1,73,75,77,79,-1,-1,-1,-1,-1,-1,-1,-1,-1,-1,-1,-1,-1,-1,-1,-1,-1,-1,-1,-1,-1,-1,-1,-1,-1,-1,-1,-1],"loss_changes":[6.2792755E1,8.0018524E1,5.8094925E1,5.5996597E1,1.3949042E2,3.000486E1,5.960681E1,7.281679E1,6.82206E1,2.4110918E1,2.5857819E1,7.8748703E-1,0E0,4.686758E1,7.914423E1,1.7658386E1,9.404574E1,2.865194E1,7.5573906E1,1.633436E1,3.2247763E0,3.17326E-1,1.561557E1,0E0,0E0,2.7659009E0,6.404213E0,1.07383835E2,5.2654633E1,5.5236816E-1,0E0,6.8782024E0,0E0,0E0,2.6039453E0,5.362361E1,9.038155E1,0E0,9.18154E0,7.207405E-1,0E0,0E0,0E0,5.5944943E0,7.546875E0,0E0,2.0186333E-1,0E0,0E0,6.557671E1,1.6689537E1,4.0552223E1,6.0388542E1,0E0,0E0,0E0,0E0,0E0,0E0,0E0,0E0,0E0,0E0,0E0,0E0,0E0,0E0,0E0,0E0,0E0,0E0,0E0,0E0,0E0,0E0,0E0,0E0,0E0,0E0,0E0,0E0],"parents":[2147483647,0,0,1,1,2,2,3,3,4,4,5,5,6,6,7,7,8,8,9,9,10,10,11,11,13,13,14,14,15,15,16,16,17,17,18,18,19,19,20,20,21,21,22,22,25,25,26,26,27,27,28,28,29,29,31,31,34,34,35,35,36,36,38,38,39,39,43,43,44,44,46,46,49,49,50,50,51,51,52,52],"right_children":[2,4,6,8,10,12,14,16,18,20,22,24,-1,26,28,30,32,34,36,38,40,42,44,-1,-1,46,48,50,52,54,-1,56,-1,-1,58,60,62,-1,64,66,-1,-1,-1,68,70,-1,72,-1,-1,74,76,78,80,-1,-1,-1,-1,-1,-1,-1,-1,-1,-1,-1,-1,-1,-1,-1,-1,-1,-1,-1,-1,-1,-1,-1,-1,-1,-1,-1,-1],"split_conditions":[1.05E1,3.5E0,7.293819E-2,1.5418807E-1,3.1003147E-1,5.2668697E-1,1.9905047E-1,4.475185E-1,4.724978E-2,1.15E1,5E-1,1.3005489E-1,5.352202E-1,3.05E1,2.1E1,1.4E1,4.975559E-1,3.5E0,5.5E0,1.85E1,2.7E1,2.55E1,5.383852E-2,2.0151664E-2,1.3994294E-1,1.65E1,1.35E1,3.5E0,8.5E0,3.85E1,6.354266E-2,9.236434E-2,3.843954E-1,5.6081766E-1,3.7E1,5.45E1,3.5E0,-1.5160318E-1,8.5E0,1.4E1,-1.6449863E-1,3.505087E-3,7.6268725E-2,3.6E1,2.5485843E-2,-1.0664462E-1,3E0,4.0438566E-1,1.12685874E-1,5.069768E-1,1.5E1,2.5E0,5.6451046E-1,6.875889E-1,2.6568612E-1,-7.0152286E-4,-2.2047868E-1,1.3132583E-1,-3.8676407E-2,2.737063E-1,-2.7357114E-2,-6.3984536E-2,2.2169547E-1,2.2457893E-1,-1.0114702E-2,3.173938E-2,-4.7409665E-2,-4.1069984E-2,2.1615124E-1,9.448762E-2,5.0240177E-1,3.660253E-2,-8.564711E-3,4.6943292E-1,-6.0634345E-2,-3.388105E-1,6.4611815E-2,3.690917E-2,-3.1296608E-1,-1.17631726E-1,2.3808268E-1],"split_indices":[3,15,20,8,17,14,14,20,17,4,6,14,0,0,0,4,14,1,2,0,0,0,8,0,0,0,3,21,4,0,0,8,0,0,0,0,9,0,3,0,0,0,0,0,14,0,1,0,0,17,0,4,20,0,0,0,0,0,0,0,0,0,0,0,0,0,0,0,0,0,0,0,0,0,0,0,0,0,0,0,0],"split_type":[0,0,0,0,0,0,0,0,0,0,0,0,0,0,0,0,0,0,0,0,0,0,0,0,0,0,0,0,0,0,0,0,0,0,0,0,0,0,0,0,0,0,0,0,0,0,0,0,0,0,0,0,0,0,0,0,0,0,0,0,0,0,0,0,0,0,0,0,0,0,0,0,0,0,0,0,0,0,0,0,0],"sum_hessian":[2.27E2,1.54E2,7.3E1,1.15E2,3.9E1,9E0,6.4E1,1.7E1,9.8E1,1.6E1,2.3E1,7E0,2E0,1.2E1,5.2E1,6E0,1.1E1,5E0,9.3E1,1E1,6E0,2E0,2.1E1,1E0,6E0,5E0,7E0,1.4E1,3.8E1,5E0,1E0,6E0,5E0,3E0,2E0,2.8E1,6.5E1,1E0,9E0,3E0,3E0,1E0,1E0,2E0,1.9E1,2E0,3E0,5E0,2E0,1E1,4E0,1.8E1,2E1,3E0,2E0,2E0,4E0,1E0,1E0,2E1,8E0,5.2E1,1.3E1,7E0,2E0,1E0,2E0,1E0,1E0,1E0,1.8E1,2E0,1E0,7E0,3E0,3E0,1E0,4E0,1.4E1,1.4E1,6E0],"tree_param":{"num_deleted":"0","num_feature":"22","num_nodes":"81","size_leaf_vector":"0"}},{"base_weights":[1.1043533E0,4.8285103E0,9.579191E-1,5.2415223E0,9.687147E-1,1.5572269E0,4.992833E-1,2.5498035E0,1.6841194E-1,3.4531018E-1,4.002398E0,3.5554464E0,7.127206E-1,-8.6311543E-1,1.2996573E0,6.4290655E-1,-8.3466357E-1,4.4230556E0,6.5397006E-1,-1.7235984E0,1.6397334E0,-1.4333806E0,1.2484093E0,2.4324863E0,-5.620432E-1,1.1394312E0,-5.092842E-1,3.7434486E-1,-2.8912714E0,5.41413E0,1.949456E0,2.3412755E0,-2.0404806E0,-1.87828E0,-4.750948E-1,2.5114554E-1,2.8233547E0,4.9790423E-2,-2.0555177E0,-3.3402506E-1,3.8574948E0,1.7260427E0,-1.6124122E0,-2.9358733E0,1.4497069E0,-1.6975825E0,4.2937234E-1,1.5256423E0,-1.3238436E0,-3.5923705E0,-2.916163E-1],"categories":[],"categories_nodes":[],"categories_segments":[],"categories_sizes":[],"default_left":[1,1,1,0,0,1,1,1,1,1,0,1,1,1,1,1,1,1,1,1,1,1,0,1,1,1,1,1,1,0,0,0,0,0,0,0,0,0,0,0,0,0,0,0,0,0,0,0,0,0,0],"id":27,"left_children":[1,3,5,-1,-1,7,9,11,13,15,-1,17,19,21,23,25,27,29,31,33,35,37,-1,39,41,43,45,47,49,-1,-1,-1,-1,-1,-1,-1,-1,-1,-1,-1,-1,-1,-1,-1,-1,-1,-1,-1,-1,-1,-1],"loss_changes":[1.1425964E2,7.675583E0,5.721881E1,0E0,0E0,1.2501454E2,6.3883575E1,9.53808E1,4.6631268E1,4.1621853E1,0E0,8.2697296E1,4.799622E1,2.7076157E1,4.143793E1,5.4356857E1,6.075728E1,5.3184998E1,4.569458E1,2.6636314E-1,2.3944355E1,1.5788849E1,0E0,4.859613E1,2.2009771E1,8.771104E1,3.3075607E1,3.330163E1,1.5355949E1,0E0,0E0,0E0,0E0,0E0,0E0,0E0,0E0,0E0,0E0,0E0,0E0,0E0,0E0,0E0,0E0,0E0,0E0,0E0,0E0,0E0,0E0],"parents":[2147483647,0,0,1,1,2,2,5,5,6,6,7,7,8,8,9,9,11,11,12,12,13,13,14,14,15,15,16,16,17,17,18,18,19,19,20,20,21,21,23,23,24,24,25,25,26,26,27,27,28,28],"right_children":[2,4,6,-1,-1,8,10,12,14,16,-1,18,20,22,24,26,28,30,32,34,36,38,-1,40,42,44,46,48,50,-1,-1,-1,-1,-1,-1,-1,-1,-1,-1,-1,-1,-1,-1,-1,-1,-1,-1,-1,-1,-1,-1],"split_conditions":[9.5E0,8.086902E-1,6.5E0,5.241522E-1,9.687147E-2,5E-1,9.665097E-1,4.85E1,8.5E0,7.95469E-1,4.002398E-1,8.6003065E-1,5E-1,3.5E0,2.5E0,6.712063E-1,9E0,3.5E0,4E0,6E1,5.75E1,5.4412544E-1,1.2484093E-1,5E-1,1.15E1,7.5E0,7.5E0,1E1,1.05E1,5.41413E-1,1.949456E-1,2.3412755E-1,-2.0404807E-1,-1.87828E-1,-4.750948E-2,2.5114555E-2,2.823355E-1,4.9790423E-3,-2.0555177E-1,-3.3402506E-2,3.857495E-1,1.7260428E-1,-1.6124122E-1,-2.9358733E-1,1.449707E-1,-1.6975825E-1,4.2937234E-2,1.5256423E-1,-1.3238436E-1,-3.5923705E-1,-2.916163E-2],"split_indices":[0,20,5,0,0,19,17,0,2,20,0,11,9,15,15,17,3,21,5,0,0,17,0,9,2,5,3,4,2,0,0,0,0,0,0,0,0,0,0,0,0,0,0,0,0,0,0,0,0,0,0],"split_type":[0,0,0,0,0,0,0,0,0,0,0,0,0,0,0,0,0,0,0,0,0,0,0,0,0,0,0,0,0,0,0,0,0,0,0,0,0,0,0,0,0,0,0,0,0,0,0,0,0,0,0],"sum_hessian":[2.17E2,7E0,2.1E2,6E0,1E0,9E1,1.2E2,5.2E1,3.8E1,1.16E2,4E0,3.3E1,1.9E1,2E1,1.8E1,9.3E1,2.3E1,2.5E1,8E0,5E0,1.4E1,1.6E1,4E0,1.1E1,7E0,6.5E1,2.8E1,1.5E1,8E0,1.7E1,8E0,5E0,3E0,4E0,1E0,7E0,7E0,5E0,1.1E1,4E0,7E0,2E0,5E0,4E0,6.1E1,1.2E1,1.6E1,9E0,6E0,6E0,2E0],"tree_param":{"num_deleted":"0","num_feature":"22","num_nodes":"51","size_leaf_vector":"0"}},{"base_weights":[9.170277E-1,4.008403E-1,1.5203772E0,8.219665E-1,-3.8217854E-1,2.7875423E0,9.2784667E-1,1.5556549E0,-4.2824617E-1,-1.2570872E0,1.0298634E0,4.141908E0,1.851071E-1,5.9614383E-2,2.5230095E0,7.064396E-1,3.490061E0,1.7503756E0,-1.045834E0,1.4567473E0,-1.7923952E0,-1.3506899E0,1.4373164E0,4.840929E0,-1.66586E0,-1.4857159E0,9.071276E-1,7.4106795E-1,-2.8999748E0,3.3969E0,2.4137968E-1,2.0923927E0,-7.9575753E-1,4.1205654E0,-4.0547785E-1,2.229664E0,3.6810318E-1,-1.6150687E0,1.4402716E0,3.50589E0,-1.0779778E0,-7.657164E-1,-3.050506E0,-1.7125821E0,-3.1345272E-1,1.9241422E0,-3.8248998E-1,6.6734953E0,3.2158074E0,-2.0176816E-1,-1.8464423E0,-7.715867E-1,1.496987E0,1.9052168E0,-7.229512E-1,1.3941021E0,-3.6109972E0,1.187136E0,4.402854E0,3.183117E0,-2.160286E0,-5.343544E-1,3.0686848E0,9.1973424E-1,-1.9710463E0,2.7267456E-2,4.459401E0,-1.9796848E-2,-5.884199E-1,-2.4651513E0,-3.1800687E-2,-1.181016E-1,1.8593903E0,-1.5501828E0,-6.6783905E-2,5.223568E-1,-1.5393522E0,-3.3135672E0,-3.4147906E-1,2.544824E0,8.793233E-1,-1.1489083E0,2.559522E-1,2.8363175E0,8.408539E0,4.220168E0,9.6566904E-1,3.4795856E-1,1.6304985E0,2.9390895E0,-1.3416253E0,-1.9802922E0,1.0962616E0,-4.303628E0,6.187086E-1,2.0891962E0,-7.1200943E-1,1.3952019E0,5.250382E0,1.0739641E0,-3.2373395E0],"categories":[],"categories_nodes":[],"categories_segments":[],"categories_sizes":[],"default_left":[1,1,1,1,1,1,1,1,1,1,1,1,1,1,1,1,1,1,1,1,1,1,1,1,0,1,1,1,1,1,1,1,1,1,1,0,0,1,1,0,1,1,1,0,0,1,1,1,1,0,0,0,1,1,1,0,1,1,1,0,1,0,0,0,0,0,0,0,0,0,0,0,0,0,0,0,0,0,0,0,0,0,0,0,0,0,0,0,0,0,0,0,0,0,0,0,0,0,0,0,0],"id":28,"left_children":[1,3,5,7,9,11,13,15,17,19,21,23,25,27,29,31,33,35,37,39,41,43,45,47,-1,49,51,53,55,57,59,61,63,65,67,-1,-1,69,71,-1,73,75,77,-1,-1,79,81,83,85,-1,-1,-1,87,89,91,-1,93,95,97,-1,99,-1,-1,-1,-1,-1,-1,-1,-1,-1,-1,-1,-1,-1,-1,-1,-1,-1,-1,-1,-1,-1,-1,-1,-1,-1,-1,-1,-1,-1,-1,-1,-1,-1,-1,-1,-1,-1,-1,-1,-1],"loss_changes":[6.853056E1,4.021386E1,7.399866E1,7.313025E1,5.441716E1,1.1202208E2,9.81826E1,7.967084E1,4.219531E1,4.1834976E1,1.8430756E1,9.331906E1,1.5824155E1,9.6939735E1,4.902742E1,7.6616135E1,3.8513107E1,3.816803E0,3.6290398E1,2.9749336E1,2.7372726E1,5.8929014E-1,1.4024895E1,3.5124023E1,0E0,1.4800625E0,1.0066904E1,6.78465E1,3.2512764E1,3.4785797E1,6.3397E1,5.0364754E1,3.810441E1,1.7908829E1,2.0002294E-1,0E0,0E0,2.6839771E1,3.4853134E0,0E0,1.3289454E0,1.4755085E1,5.9948807E0,0E0,0E0,5.5442734E0,2.2513206E0,2.9412048E1,2.3044113E1,0E0,0E0,0E0,5.0651455E-1,7.7793236E1,4.3343594E1,0E0,2.609967E1,1.3479531E1,2.3263489E1,0E0,2.0894089E1,0E0,0E0,0E0,0E0,0E0,0E0,0E0,0E0,0E0,0E0,0E0,0E0,0E0,0E0,0E0,0E0,0E0,0E0,0E0,0E0,0E0,0E0,0E0,0E0,0E0,0E0,0E0,0E0,0E0,0E0,0E0,0E0,0E0,0E0,0E0,0E0,0E0,0E0,0E0,0E0],"parents":[2147483647,0,0,1,1,2,2,3,3,4,4,5,5,6,6,7,7,8,8,9,9,10,10,11,11,12,12,13,13,14,14,15,15,16,16,17,17,18,18,19,19,20,20,21,21,22,22,23,23,25,25,26,26,27,27,28,28,29,29,30,30,31,31,32,32,33,33,34,34,37,37,38,38,40,40,41,41,42,42,45,45,46,46,47,47,48,48,52,52,53,53,